{"learner":{"attributes":{"scikit_learn":"{\"_estimator_type\": \"regressor\"}"},"feature_names":[],"feature_types":[],"gradient_booster":{"model":{"gbtree_model_param":{"num_parallel_tree":"1","num_trees":"200"},"iteration_indptr":[0,1,2,3,4,5,6,7,8,9,10,11,12,13,14,15,16,17,18,19,20,21,22,23,24,25,26,27,28,29,30,31,32,33,34,35,36,37,38,39,40,41,42,43,44,45,46,47,48,49,50,51,52,53,54,55,56,57,58,59,60,61,62,63,64,65,66,67,68,69,70,71,72,73,74,75,76,77,78,79,80,81,82,83,84,85,86,87,88,89,90,91,92,93,94,95,96,97,98,99,100,101,102,103,104,105,106,107,108,109,110,111,112,113,114,115,116,117,118,119,120,121,122,123,124,125,126,127,128,129,130,131,132,133,134,135,136,137,138,139,140,141,142,143,144,145,146,147,148,149,150,151,152,153,154,155,156,157,158,159,160,161,162,163,164,165,166,167,168,169,170,171,172,173,174,175,176,177,178,179,180,181,182,183,184,185,186,187,188,189,190,191,192,193,194,195,196,197,198,199,200],"tree_info":[0,0,0,0,0,0,0,0,0,0,0,0,0,0,0,0,0,0,0,0,0,0,0,0,0,0,0,0,0,0,0,0,0,0,0,0,0,0,0,0,0,0,0,0,0,0,0,0,0,0,0,0,0,0,0,0,0,0,0,0,0,0,0,0,0,0,0,0,0,0,0,0,0,0,0,0,0,0,0,0,0,0,0,0,0,0,0,0,0,0,0,0,0,0,0,0,0,0,0,0,0,0,0,0,0,0,0,0,0,0,0,0,0,0,0,0,0,0,0,0,0,0,0,0,0,0,0,0,0,0,0,0,0,0,0,0,0,0,0,0,0,0,0,0,0,0,0,0,0,0,0,0,0,0,0,0,0,0,0,0,0,0,0,0,0,0,0,0,0,0,0,0,0,0,0,0,0,0,0,0,0,0,0,0,0,0,0,0,0,0,0,0,0,0,0,0,0,0,0,0],"trees":[{"base_weights":[2.2522947E-7,-2.9736848E0,7.792011E-1,-3.968621E-1,-3.4667997E0,1.2208998E0,-3.190603E0,-2.2629774E-1,9.133585E-2,-2.504211E-1,-4.6784422E-1,4.81844E-1,8.131933E-1,-4.2083082E-1,-2.5265434E-1,1.3270448E-1,1.597241E0,2.2320227E-1,2.6079763E-3,2.6180288E-1,1.1161496E-1],"categories":[],"categories_nodes":[],"categories_segments":[],"categories_sizes":[],"default_left":[0,0,0,0,0,0,0,0,0,0,0,0,0,0,0,0,0,0,0,0,0],"id":0,"left_children":[1,3,5,7,9,11,13,-1,-1,-1,-1,-1,15,-1,-1,17,19,-1,-1,-1,-1],"loss_changes":[5.468351E2,6.0886993E1,3.317919E2,2.4072113E1,3.6103058E1,2.4396077E2,2.2080383E0,0E0,0E0,0E0,0E0,0E0,8.141901E1,0E0,0E0,1.8520443E1,3.1945435E1,0E0,0E0,0E0,0E0],"parents":[2147483647,0,0,1,1,2,2,3,3,4,4,5,5,6,6,12,12,15,15,16,16],"right_children":[2,4,6,8,10,12,14,-1,-1,-1,-1,-1,16,-1,-1,18,20,-1,-1,-1,-1],"split_conditions":[9.706218E-1,6.385392E-1,9.217633E-1,-6.4433074E-1,1.1111111E-1,1.6666667E-1,6.6063315E-1,-2.2629774E-1,9.133585E-2,-2.504211E-1,-4.6784422E-1,4.81844E-1,-4.653507E-1,-4.2083082E-1,-2.5265434E-1,5.7583684E-1,5.980176E-1,2.2320227E-1,2.6079763E-3,2.6180288E-1,1.1161496E-1],"split_indices":[18,3,76,68,0,0,67,0,0,0,0,0,4,0,0,67,67,0,0,0,0],"split_type":[0,0,0,0,0,0,0,0,0,0,0,0,0,0,0,0,0,0,0,0,0],"sum_hessian":[2.34E2,4.8E1,1.86E2,8E0,4E1,1.68E2,1.8E1,3E0,5E0,2.4E1,1.6E1,1.6E1,1.52E2,5E0,1.3E1,8.2E1,7E1,3E0,7.9E1,2.1E1,4.9E1],"tree_param":{"num_deleted":"0","num_feature":"131","num_nodes":"21","size_leaf_vector":"1"}},{"base_weights":[-1.8961206E-3,-2.6937292E0,7.0346063E-1,-3.7217155E-1,-3.1376386E0,1.1052067E0,-2.906989E0,-2.0932542E-1,8.372453E-2,-2.2638068E0,-4.2381188E-1,4.3649396E-1,7.3579055E-1,-3.857616E-1,-2.2919357E-1,-1.7294298E-1,-2.6240453E-1,1.2215478E-1,1.4427762E0,2.064621E-1,2.3504538E-3,2.3681262E-1,1.0067667E-1],"categories":[],"categories_nodes":[],"categories_segments":[],"categories_sizes":[],"default_left":[0,0,0,0,0,0,0,0,0,0,0,0,0,0,0,0,0,0,0,0,0,0,0],"id":1,"left_children":[1,3,5,7,9,11,13,-1,-1,15,-1,-1,17,-1,-1,-1,-1,19,21,-1,-1,-1,-1],"loss_changes":[4.4809003E2,4.9329773E1,2.7445334E2,2.0486122E1,2.9832733E1,2.0029779E2,2.267624E0,0E0,0E0,2.7445984E-1,0E0,0E0,6.620001E1,0E0,0E0,0E0,0E0,1.5856327E1,2.6261627E1,0E0,0E0,0E0,0E0],"parents":[2147483647,0,0,1,1,2,2,3,3,4,4,5,5,6,6,9,9,12,12,17,17,18,18],"right_children":[2,4,6,8,10,12,14,-1,-1,16,-1,-1,18,-1,-1,-1,-1,20,22,-1,-1,-1,-1],"split_conditions":[9.706218E-1,6.385392E-1,9.217633E-1,-6.4433074E-1,1.1111111E-1,1.6666667E-1,6.6063315E-1,-2.0932542E-1,8.372453E-2,6.1737496E-1,-4.2381188E-1,4.3649396E-1,-4.653507E-1,-3.857616E-1,-2.2919357E-1,-1.7294298E-1,-2.6240453E-1,5.7583684E-1,5.980176E-1,2.064621E-1,2.3504538E-3,2.3681262E-1,1.0067667E-1],"split_indices":[18,3,76,68,0,0,67,0,0,67,0,0,4,0,0,0,0,67,67,0,0,0,0],"split_type":[0,0,0,0,0,0,0,0,0,0,0,0,0,0,0,0,0,0,0,0,0,0,0],"sum_hessian":[2.34E2,4.8E1,1.86E2,8E0,4E1,1.68E2,1.8E1,3E0,5E0,2.4E1,1.6E1,1.6E1,1.52E2,5E0,1.3E1,1.2E1,1.2E1,8.2E1,7E1,3E0,7.9E1,2.1E1,4.9E1],"tree_param":{"num_deleted":"0","num_feature":"131","num_nodes":"23","size_leaf_vector":"1"}},{"base_weights":[-4.331599E-3,-2.4444532E0,6.3508177E-1,-3.4891006E-1,-2.8448298E0,9.786978E-1,-2.8586488E0,-1.93626E-1,7.674749E-2,-2.05484E0,-3.8392368E-1,3.954122E-1,6.4604676E-1,-2.1137469E-1,-3.6208308E-1,-1.56979E-1,-2.3818254E-1,1.0991392E0,-1.9774203E-1,1.3032521E-1,5.9619874E-2,-1.3927189E-1,2.8519226E-2],"categories":[],"categories_nodes":[],"categories_segments":[],"categories_sizes":[],"default_left":[0,0,0,0,0,0,0,0,0,0,0,0,0,0,0,0,0,0,0,0,0,0,0],"id":2,"left_children":[1,3,5,7,9,11,13,-1,-1,15,-1,-1,17,-1,-1,-1,-1,19,21,-1,-1,-1,-1],"loss_changes":[3.6821033E2,4.0118744E1,2.272916E2,1.7434874E1,2.4319397E1,1.6669751E2,1.9982452E0,0E0,0E0,2.2613525E-1,0E0,0E0,5.947606E1,0E0,0E0,0E0,0E0,9.591324E0,3.2137432E1,0E0,0E0,0E0,0E0],"parents":[2147483647,0,0,1,1,2,2,3,3,4,4,5,5,6,6,9,9,12,12,17,17,18,18],"right_children":[2,4,6,8,10,12,14,-1,-1,16,-1,-1,18,-1,-1,-1,-1,20,22,-1,-1,-1,-1],"split_conditions":[9.706218E-1,6.385392E-1,-2.1633692E-1,-6.4433074E-1,1.1111111E-1,1.6666667E-1,1.4285715E-1,-1.93626E-1,7.674749E-2,6.1737496E-1,-3.8392368E-1,3.954122E-1,3.389665E-1,-2.1137469E-1,-3.6208308E-1,-1.56979E-1,-2.3818254E-1,6.2933975E-1,-8.4601635E-1,1.3032521E-1,5.9619874E-2,-1.3927189E-1,2.8519226E-2],"split_indices":[18,3,112,68,0,0,0,0,0,67,0,0,28,0,0,0,0,3,71,0,0,0,0],"split_type":[0,0,0,0,0,0,0,0,0,0,0,0,0,0,0,0,0,0,0,0,0,0,0],"sum_hessian":[2.34E2,4.8E1,1.86E2,8E0,4E1,1.7E2,1.6E1,3E0,5E0,2.4E1,1.6E1,1.6E1,1.54E2,1E1,6E0,1.2E1,1.2E1,1E2,5.4E1,7E1,3E1,1.5E1,3.9E1],"tree_param":{"num_deleted":"0","num_feature":"131","num_nodes":"23","size_leaf_vector":"1"}},{"base_weights":[-8.131728E-3,-2.218293E0,5.710449E-1,-3.2700554E-1,-2.579349E0,9.03952E-1,-2.420131E0,-1.7910406E-1,7.035187E-2,-1.8651625E0,-3.477897E-1,3.5819697E-1,6.0048634E-1,-3.234412E-1,-1.8982871E-1,-1.4248861E-1,-2.1619646E-1,9.911058E-1,-1.5523167E-1,1.2883365E-1,6.744417E-2,-7.589155E-2,5.5125076E-2],"categories":[],"categories_nodes":[],"categories_segments":[],"categories_sizes":[],"default_left":[0,0,0,0,0,0,0,0,0,0,0,0,0,0,0,0,0,0,0,0,0,0,0],"id":3,"left_children":[1,3,5,7,9,11,13,-1,-1,15,-1,-1,17,-1,-1,-1,-1,19,21,-1,-1,-1,-1],"loss_changes":[3.020841E2,3.2616714E1,1.8839925E2,1.4838542E1,1.9824127E1,1.3519308E2,1.9337845E0,0E0,0E0,1.8632507E-1,0E0,0E0,4.5319176E1,0E0,0E0,0E0,0E0,8.637444E0,2.3022427E1,0E0,0E0,0E0,0E0],"parents":[2147483647,0,0,1,1,2,2,3,3,4,4,5,5,6,6,9,9,12,12,17,17,18,18],"right_children":[2,4,6,8,10,12,14,-1,-1,16,-1,-1,18,-1,-1,-1,-1,20,22,-1,-1,-1,-1],"split_conditions":[9.706218E-1,6.385392E-1,9.217633E-1,-6.4433074E-1,1.1111111E-1,1.6666667E-1,6.6063315E-1,-1.7910406E-1,7.035187E-2,6.1737496E-1,-3.477897E-1,3.5819697E-1,3.389665E-1,-3.234412E-1,-1.8982871E-1,-1.4248861E-1,-2.1619646E-1,5.5E1,6E-1,1.2883365E-1,6.744417E-2,-7.589155E-2,5.5125076E-2],"split_indices":[18,3,76,68,0,0,67,0,0,67,0,0,28,0,0,0,0,2,0,0,0,0,0],"split_type":[0,0,0,0,0,0,0,0,0,0,0,0,0,0,0,0,0,0,0,0,0,0,0],"sum_hessian":[2.34E2,4.8E1,1.86E2,8E0,4E1,1.68E2,1.8E1,3E0,5E0,2.4E1,1.6E1,1.6E1,1.52E2,5E0,1.3E1,1.2E1,1.2E1,1E2,5.2E1,5E1,5E1,2.8E1,2.4E1],"tree_param":{"num_deleted":"0","num_feature":"131","num_nodes":"23","size_leaf_vector":"1"}},{"base_weights":[-1.07007325E-2,-2.013101E0,5.140496E-1,-3.0638874E-1,-2.3386452E0,8.00273E-1,-2.395259E0,-1.6567127E-1,6.44892E-1,-1.6929936E0,-3.1505653E-1,5.0651777E-1,3.123656E-1,-2.8482977E-1,-1.5295532E-1,8.19247E-2,3.529028E-2,-1.2933584E-1,-1.9623987E-1,8.939384E-1,-2.413314E-1,1.0736823E-1,4.534303E-2,-1.0620948E-1,3.75407E-2],"categories":[],"categories_nodes":[],"categories_segments":[],"categories_sizes":[],"default_left":[0,0,0,0,0,0,0,0,0,0,0,0,0,0,0,0,0,0,0,0,0,0,0,0,0],"id":4,"left_children":[1,3,5,7,9,11,13,-1,15,17,-1,19,-1,-1,-1,-1,-1,-1,-1,21,23,-1,-1,-1,-1],"loss_changes":[2.4796352E2,2.6508362E1,1.5763403E2,1.2629234E1,1.6159012E1,1.1512632E2,2.3107376E0,0E0,1.6344309E-2,1.5351105E-1,0E0,4.4544758E1,0E0,0E0,0E0,0E0,0E0,0E0,0E0,7.510208E0,2.7227121E1,0E0,0E0,0E0,0E0],"parents":[2147483647,0,0,1,1,2,2,3,3,4,4,5,5,6,6,8,8,9,9,11,11,19,19,20,20],"right_children":[2,4,6,8,10,12,14,-1,16,18,-1,20,-1,-1,-1,-1,-1,-1,-1,22,24,-1,-1,-1,-1],"split_conditions":[9.706218E-1,6.385392E-1,-2.1633692E-1,-6.4433074E-1,1.1111111E-1,-2.085474E-1,3E1,-1.6567127E-1,-1.6448382E-2,6.1737496E-1,-3.1505653E-1,3.389665E-1,3.123656E-1,-2.8482977E-1,-1.5295532E-1,8.19247E-2,3.529028E-2,-1.2933584E-1,-1.9623987E-1,6.2933975E-1,2.2E1,1.0736823E-1,4.534303E-2,-1.0620948E-1,3.75407E-2],"split_indices":[18,3,112,68,0,95,2,0,80,67,0,28,0,0,0,0,0,0,0,3,2,0,0,0,0],"split_type":[0,0,0,0,0,0,0,0,0,0,0,0,0,0,0,0,0,0,0,0,0,0,0,0,0],"sum_hessian":[2.34E2,4.8E1,1.86E2,8E0,4E1,1.7E2,1.6E1,3E0,5E0,2.4E1,1.6E1,1.52E2,1.8E1,9E0,7E0,2E0,3E0,1.2E1,1.2E1,1E2,5.2E1,7E1,3E1,2.2E1,3E1],"tree_param":{"num_deleted":"0","num_feature":"131","num_nodes":"25","size_leaf_vector":"1"}},{"base_weights":[-1.27390325E-2,-1.825854E0,4.6242335E-1,-2.8113392E-1,-2.1204057E0,7.225638E-1,-2.181485E0,-1.5324591E-1,5.999386E-1,-1.5367173E0,-2.8540418E-1,2.967018E-1,4.717362E-1,-1.5740003E-1,-2.8244635E-1,7.6463036E-2,3.264351E-2,-1.1739713E-1,-1.7812543E-1,8.060566E-1,-1.5077473E-1,1.068928E-1,5.273803E-2,-1.07006885E-1,2.2071227E-2],"categories":[],"categories_nodes":[],"categories_segments":[],"categories_sizes":[],"default_left":[0,0,0,0,0,0,0,0,0,0,0,0,0,0,0,0,0,0,0,0,0,0,0,0,0],"id":5,"left_children":[1,3,5,7,9,11,13,-1,15,17,-1,-1,19,-1,-1,-1,-1,-1,-1,21,23,-1,-1,-1,-1],"loss_changes":[2.0330247E2,2.1698883E1,1.3019254E2,1.0841955E1,1.3170929E1,9.486842E1,2.194481E0,0E0,2.06604E-2,1.264801E-1,0E0,0E0,3.237984E1,0E0,0E0,0E0,0E0,0E0,0E0,6.835129E0,1.9018997E1,0E0,0E0,0E0,0E0],"parents":[2147483647,0,0,1,1,2,2,3,3,4,4,5,5,6,6,8,8,9,9,12,12,19,19,20,20],"right_children":[2,4,6,8,10,12,14,-1,16,18,-1,-1,20,-1,-1,-1,-1,-1,-1,22,24,-1,-1,-1,-1],"split_conditions":[9.706218E-1,6.385392E-1,-2.1633692E-1,-6.4433074E-1,1.1111111E-1,1.6666667E-1,1.4285715E-1,-1.5324591E-1,-1.6448382E-2,6.1737496E-1,-2.8540418E-1,2.967018E-1,3.389665E-1,-1.5740003E-1,-2.8244635E-1,7.6463036E-2,3.264351E-2,-1.1739713E-1,-1.7812543E-1,5.5E1,-8.4601635E-1,1.068928E-1,5.273803E-2,-1.07006885E-1,2.2071227E-2],"split_indices":[18,3,112,68,0,0,0,0,80,67,0,0,28,0,0,0,0,0,0,2,71,0,0,0,0],"split_type":[0,0,0,0,0,0,0,0,0,0,0,0,0,0,0,0,0,0,0,0,0,0,0,0,0],"sum_hessian":[2.34E2,4.8E1,1.86E2,8E0,4E1,1.7E2,1.6E1,3E0,5E0,2.4E1,1.6E1,1.6E1,1.54E2,1E1,6E0,2E0,3E0,1.2E1,1.2E1,1E2,5.4E1,5E1,5E1,1.5E1,3.9E1],"tree_param":{"num_deleted":"0","num_feature":"131","num_nodes":"25","size_leaf_vector":"1"}},{"base_weights":[-1.4416221E-2,-1.6560249E0,4.1581503E-1,-2.5792488E-1,-1.9225341E0,6.524794E-1,-1.9892098E0,-1.4175247E-1,5.5812913E-1,-1.3948663E0,-2.585426E-1,4.0760672E-1,2.5900078E-1,-1.4309092E-1,-2.5823665E-1,7.136548E-2,3.019526E-2,-9.374688E-2,-1.554967E-1,7.270315E-1,-2.0879911E-1,8.853214E-2,3.4104392E-2,-8.974335E-2,3.0885864E-2],"categories":[],"categories_nodes":[],"categories_segments":[],"categories_sizes":[],"default_left":[0,0,0,0,0,0,0,0,0,0,0,0,0,0,0,0,0,0,0,0,0,0,0,0,0],"id":6,"left_children":[1,3,5,7,9,11,13,-1,15,17,-1,19,-1,-1,-1,-1,-1,-1,-1,21,23,-1,-1,-1,-1],"loss_changes":[1.6666237E2,1.776184E1,1.0773526E2,9.307827E0,1.0734924E1,8.007485E1,1.9345856E0,0E0,2.3562193E-2,3.7300873E-1,0E0,3.0276785E1,0E0,0E0,0E0,0E0,0E0,0E0,0E0,5.8689575E0,1.9170456E1,0E0,0E0,0E0,0E0],"parents":[2147483647,0,0,1,1,2,2,3,3,4,4,5,5,6,6,8,8,9,9,11,11,19,19,20,20],"right_children":[2,4,6,8,10,12,14,-1,16,18,-1,20,-1,-1,-1,-1,-1,-1,-1,22,24,-1,-1,-1,-1],"split_conditions":[9.706218E-1,6.385392E-1,-2.1633692E-1,-6.4433074E-1,1.1111111E-1,-2.085474E-1,1.4285715E-1,-1.4175247E-1,-1.6448382E-2,3.5E1,-2.585426E-1,3.389665E-1,2.5900078E-1,-1.4309092E-1,-2.5823665E-1,7.136548E-2,3.019526E-2,-9.374688E-2,-1.554967E-1,6.2933975E-1,2.2E1,8.853214E-2,3.4104392E-2,-8.974335E-2,3.0885864E-2],"split_indices":[18,3,112,68,0,95,0,0,80,2,0,28,0,0,0,0,0,0,0,3,2,0,0,0,0],"split_type":[0,0,0,0,0,0,0,0,0,0,0,0,0,0,0,0,0,0,0,0,0,0,0,0,0],"sum_hessian":[2.34E2,4.8E1,1.86E2,8E0,4E1,1.7E2,1.6E1,3E0,5E0,2.4E1,1.6E1,1.52E2,1.8E1,1E1,6E0,2E0,3E0,8E0,1.6E1,1E2,5.2E1,7E1,3E1,2.2E1,3E1],"tree_param":{"num_deleted":"0","num_feature":"131","num_nodes":"25","size_leaf_vector":"1"}},{"base_weights":[-1.5640635E-2,-1.5016057E0,3.7381354E-1,-2.3659818E-1,-1.7426658E0,8.1366205E-1,-7.2458494E-1,-1.3112105E-1,5.1924306E-1,-1.2653496E0,-2.3420916E-1,2.4574225E-1,5.699537E-1,-1.6434743E0,1.0187003E-2,6.6607796E-2,2.7930617E-2,-9.4106925E-1,-1.4922954E-1,2.2070734E-1,7.980364E-1,-2.3610209E-1,-1.2731244E-1,-8.4897256E-1,4.0025103E-1,-4.0710546E-2,-1.001144E-1,3.7345793E-3,1.13284685E-1,1.6529372E-1,4.0591925E-2,-1.4384498E-1,-5.21797E-2,6.325505E-2,5.823665E-3],"categories":[],"categories_nodes":[],"categories_segments":[],"categories_sizes":[],"default_left":[0,0,0,0,0,0,0,0,0,0,0,0,0,0,0,0,0,0,0,0,0,0,0,0,0,0,0,0,0,0,0,0,0,0,0],"id":7,"left_children":[1,3,5,7,9,11,13,-1,15,17,-1,-1,19,21,23,-1,-1,25,-1,27,29,-1,-1,31,33,-1,-1,-1,-1,-1,-1,-1,-1,-1,-1],"loss_changes":[1.3655942E2,1.4529884E1,9.093468E1,7.990964E0,8.767174E0,5.2279556E1,3.647615E1,0E0,2.5346994E-2,4.3549728E-1,0E0,0E0,9.223396E0,3.3719635E0,1.0728746E1,0E0,0E0,9.440422E-3,0E0,7.9857564E0,2.312975E1,0E0,0E0,1.1780457E0,1.7110567E0,0E0,0E0,0E0,0E0,0E0,0E0,0E0,0E0,0E0,0E0],"parents":[2147483647,0,0,1,1,2,2,3,3,4,4,5,5,6,6,8,8,9,9,12,12,13,13,14,14,17,17,19,19,20,20,23,23,24,24],"right_children":[2,4,6,8,10,12,14,-1,16,18,-1,-1,20,22,24,-1,-1,26,-1,28,30,-1,-1,32,34,-1,-1,-1,-1,-1,-1,-1,-1,-1,-1],"split_conditions":[9.706218E-1,6.385392E-1,2.0528625E-1,-6.4433074E-1,1.1111111E-1,1.6666667E-1,7.05965E-1,-1.3112105E-1,-1.6448382E-2,6.1737496E-1,-2.3420916E-1,2.4574225E-1,-4.653507E-1,6.6063315E-1,6E-1,6.6607796E-2,2.7930617E-2,2.2E1,-1.4922954E-1,-8.4601635E-1,5.980176E-1,-2.3610209E-1,-1.2731244E-1,2.2E1,6E1,-4.0710546E-2,-1.001144E-1,3.7345793E-3,1.13284685E-1,1.6529372E-1,4.0591925E-2,-1.4384498E-1,-5.21797E-2,6.325505E-2,5.823665E-3],"split_indices":[18,3,72,68,0,0,67,0,80,67,0,0,4,67,0,0,0,2,0,71,67,0,0,2,2,0,0,0,0,0,0,0,0,0,0],"split_type":[0,0,0,0,0,0,0,0,0,0,0,0,0,0,0,0,0,0,0,0,0,0,0,0,0,0,0,0,0,0,0,0,0,0,0],"sum_hessian":[2.34E2,4.8E1,1.86E2,8E0,4E1,1.33E2,5.3E1,3E0,5E0,2.4E1,1.6E1,1.6E1,1.17E2,2.3E1,3E1,2E0,3E0,1.2E1,1.2E1,4.7E1,7E1,6E0,1.7E1,9E0,2.1E1,2E0,1E1,4E1,7E0,2.1E1,4.9E1,2E0,7E0,1.2E1,9E0],"tree_param":{"num_deleted":"0","num_feature":"131","num_nodes":"35","size_leaf_vector":"1"}},{"base_weights":[-1.6129918E-2,-1.3628911E0,3.3685097E-1,-2.1700314E-1,-1.5811862E0,7.3653966E-1,-6.61207E-1,-1.21286966E-1,4.8307505E-1,-1.1504169E0,-2.1216595E-1,2.2261362E0,5.156949E-1,-1.494269E0,5.073401E-3,2.9418832E-2,7.1375445E-2,-7.565198E-2,-1.291279E-1,2.7565116E-1,1.6862486E-1,2.0107451E-1,7.211327E-1,-2.1586476E-1,-1.1528846E-1,-7.8367764E-1,3.63366E-1,3.3702292E-3,1.0337229E-1,1.4951569E-1,3.6613937E-2,-1.342553E-1,-4.7613967E-2,5.741614E-2,5.29954E-3],"categories":[],"categories_nodes":[],"categories_segments":[],"categories_sizes":[],"default_left":[0,0,0,0,0,0,0,0,0,0,0,0,0,0,0,0,0,0,0,0,0,0,0,0,0,0,0,0,0,0,0,0,0,0,0],"id":8,"left_children":[1,3,5,7,9,11,13,-1,15,17,-1,19,21,23,25,-1,-1,-1,-1,-1,-1,27,29,-1,-1,31,33,-1,-1,-1,-1,-1,-1,-1,-1],"loss_changes":[1.12173615E2,1.1913818E1,7.508363E1,6.8605666E0,7.104805E0,4.2933914E1,2.9980434E1,0E0,5.1455617E-2,4.1025543E-1,0E0,2.1966553E-1,7.4819202E0,2.954731E0,9.045475E0,0E0,0E0,0E0,0E0,0E0,0E0,6.6545467E0,1.8961475E1,0E0,0E0,1.0795112E0,1.4089155E0,0E0,0E0,0E0,0E0,0E0,0E0,0E0,0E0],"parents":[2147483647,0,0,1,1,2,2,3,3,4,4,5,5,6,6,8,8,9,9,11,11,12,12,13,13,14,14,21,21,22,22,25,25,26,26],"right_children":[2,4,6,8,10,12,14,-1,16,18,-1,20,22,24,26,-1,-1,-1,-1,-1,-1,28,30,-1,-1,32,34,-1,-1,-1,-1,-1,-1,-1,-1],"split_conditions":[9.706218E-1,6.385392E-1,2.0528625E-1,-6.4433074E-1,1.1111111E-1,1.6666667E-1,7.05965E-1,-1.21286966E-1,6E-1,3.5E1,-2.1216595E-1,9.0337884E-1,-4.653507E-1,6.6063315E-1,6E-1,2.9418832E-2,7.1375445E-2,-7.565198E-2,-1.291279E-1,2.7565116E-1,1.6862486E-1,-8.4601635E-1,5.980176E-1,-2.1586476E-1,-1.1528846E-1,2.2E1,6E1,3.3702292E-3,1.0337229E-1,1.4951569E-1,3.6613937E-2,-1.342553E-1,-4.7613967E-2,5.741614E-2,5.29954E-3],"split_indices":[18,3,72,68,0,0,67,0,0,2,0,75,4,67,0,0,0,0,0,0,0,71,67,0,0,2,2,0,0,0,0,0,0,0,0],"split_type":[0,0,0,0,0,0,0,0,0,0,0,0,0,0,0,0,0,0,0,0,0,0,0,0,0,0,0,0,0,0,0,0,0,0,0],"sum_hessian":[2.34E2,4.8E1,1.86E2,8E0,4E1,1.33E2,5.3E1,3E0,5E0,2.4E1,1.6E1,1.6E1,1.17E2,2.3E1,3E1,4E0,1E0,8E0,1.6E1,6E0,1E1,4.7E1,7E1,6E0,1.7E1,9E0,2.1E1,4E1,7E0,2.1E1,4.9E1,2E0,7E0,1.2E1,9E0],"tree_param":{"num_deleted":"0","num_feature":"131","num_nodes":"35","size_leaf_vector":"1"}},{"base_weights":[-1.5157752E-2,-1.2355292E0,3.0469978E-1,-1.9757986E-1,-1.4332368E0,6.6838676E-1,-6.034254E-1,-1.1219045E-1,4.5156655E-1,-1.0435662E0,-1.9219738E-1,4.5186466E-1,1.9551332E-1,-1.3586403E0,7.2249287E-4,2.7065316E-2,6.7806676E-2,-7.550541E-2,-1.2518041E-1,5.505207E-1,-1.9914344E-1,-1.9736207E-1,-1.0440012E-1,-7.234967E-1,3.298802E-1,8.3537124E-2,3.654463E-2,-4.6179615E-2,1.0929503E-1,-1.2530495E-1,-4.3447733E-2,5.2116204E-2,4.8225783E-3],"categories":[],"categories_nodes":[],"categories_segments":[],"categories_sizes":[],"default_left":[0,0,0,0,0,0,0,0,0,0,0,0,0,0,0,0,0,0,0,0,0,0,0,0,0,0,0,0,0,0,0,0,0],"id":9,"left_children":[1,3,5,7,9,11,13,-1,15,17,-1,19,-1,21,23,-1,-1,-1,-1,25,27,-1,-1,29,31,-1,-1,-1,-1,-1,-1,-1,-1],"loss_changes":[9.210754E1,9.7721405E0,6.2164433E1,5.9068127E0,5.802597E0,3.6450165E1,2.46391E1,0E0,6.2340617E-2,5.5679893E-1,0E0,7.5598354E0,0E0,2.5834656E0,7.628519E0,0E0,0E0,0E0,0E0,5.019293E0,5.9346714E0,0E0,0E0,9.860883E-1,1.1601248E0,0E0,0E0,0E0,0E0,0E0,0E0,0E0,0E0],"parents":[2147483647,0,0,1,1,2,2,3,3,4,4,5,5,6,6,8,8,9,9,11,11,13,13,14,14,19,19,20,20,23,23,24,24],"right_children":[2,4,6,8,10,12,14,-1,16,18,-1,20,-1,22,24,-1,-1,-1,-1,26,28,-1,-1,30,32,-1,-1,-1,-1,-1,-1,-1,-1],"split_conditions":[9.706218E-1,6.385392E-1,2.0528625E-1,-6.4433074E-1,1.1111111E-1,-2.085474E-1,7.05965E-1,-1.1219045E-1,6E-1,6.1737496E-1,-1.9219738E-1,3.389665E-1,1.9551332E-1,6.6063315E-1,6E-1,2.7065316E-2,6.7806676E-2,-7.550541E-2,-1.2518041E-1,4.5E1,2.2E1,-1.9736207E-1,-1.0440012E-1,2.2E1,6E1,8.3537124E-2,3.654463E-2,-4.6179615E-2,1.0929503E-1,-1.2530495E-1,-4.3447733E-2,5.2116204E-2,4.8225783E-3],"split_indices":[18,3,72,68,0,95,67,0,0,67,0,28,0,67,0,0,0,0,0,2,2,0,0,2,2,0,0,0,0,0,0,0,0],"split_type":[0,0,0,0,0,0,0,0,0,0,0,0,0,0,0,0,0,0,0,0,0,0,0,0,0,0,0,0,0,0,0,0,0],"sum_hessian":[2.34E2,4.8E1,1.86E2,8E0,4E1,1.33E2,5.3E1,3E0,5E0,2.4E1,1.6E1,1.15E2,1.8E1,2.3E1,3E1,4E0,1E0,1.2E1,1.2E1,1E2,1.5E1,6E0,1.7E1,9E0,2.1E1,3.8E1,6.2E1,1.3E1,2E0,2E0,7E0,1.2E1,9E0],"tree_param":{"num_deleted":"0","num_feature":"131","num_nodes":"33","size_leaf_vector":"1"}},{"base_weights":[-1.5535953E-2,-1.1203479E0,2.740433E-1,-1.7974621E-1,-1.2994958E0,6.0437423E-1,-5.507417E-1,-1.0377618E-1,4.222219E-1,-9.4723713E-1,-1.7410824E-1,1.8507153E0,4.1969478E-1,-1.2353497E0,-2.9567056E-3,2.4900094E-2,6.441634E-2,-6.781363E-2,-1.1434736E-1,2.3649731E-1,1.3552134E-1,1.5052876E-1,5.95755E-1,-1.804453E-1,-9.454011E-2,-6.680221E-1,2.9948014E-1,5.768241E-4,8.736103E-2,1.2983297E-1,2.7470706E-2,-1.16951264E-1,-3.9646037E-2,5.3572822E-2,9.471391E-3],"categories":[],"categories_nodes":[],"categories_segments":[],"categories_sizes":[],"default_left":[0,0,0,0,0,0,0,0,0,0,0,0,0,0,0,0,0,0,0,0,0,0,0,0,0,0,0,0,0,0,0,0,0,0,0],"id":10,"left_children":[1,3,5,7,9,11,13,-1,15,17,-1,19,21,23,25,-1,-1,-1,-1,-1,-1,27,29,-1,-1,31,33,-1,-1,-1,-1,-1,-1,-1,-1],"loss_changes":[7.54907E1,8.023258E0,5.1281372E1,5.086648E0,4.7284393E0,3.0066517E1,2.0247316E1,0E0,7.027221E-2,5.44754E-1,0E0,1.1268272E0,5.5022736E0,2.2543259E0,6.4354076E0,0E0,0E0,0E0,0E0,0E0,0E0,5.0192966E0,1.5658108E1,0E0,0E0,8.9819145E-1,1.0135227E0,0E0,0E0,0E0,0E0,0E0,0E0,0E0,0E0],"parents":[2147483647,0,0,1,1,2,2,3,3,4,4,5,5,6,6,8,8,9,9,11,11,12,12,13,13,14,14,21,21,22,22,25,25,26,26],"right_children":[2,4,6,8,10,12,14,-1,16,18,-1,20,22,24,26,-1,-1,-1,-1,-1,-1,28,30,-1,-1,32,34,-1,-1,-1,-1,-1,-1,-1,-1],"split_conditions":[9.706218E-1,6.385392E-1,2.0528625E-1,-6.4433074E-1,1.1111111E-1,1.6666667E-1,7.05965E-1,-1.0377618E-1,6E-1,4.5E1,-1.7410824E-1,9.0337884E-1,-4.653507E-1,6.6063315E-1,6E-1,2.4900094E-2,6.441634E-2,-6.781363E-2,-1.1434736E-1,2.3649731E-1,1.3552134E-1,-8.4601635E-1,5.980176E-1,-1.804453E-1,-9.454011E-2,2.2E1,5E1,5.768241E-4,8.736103E-2,1.2983297E-1,2.7470706E-2,-1.16951264E-1,-3.9646037E-2,5.3572822E-2,9.471391E-3],"split_indices":[18,3,72,68,0,0,67,0,0,2,0,75,4,67,0,0,0,0,0,0,0,71,67,0,0,2,2,0,0,0,0,0,0,0,0],"split_type":[0,0,0,0,0,0,0,0,0,0,0,0,0,0,0,0,0,0,0,0,0,0,0,0,0,0,0,0,0,0,0,0,0,0,0],"sum_hessian":[2.34E2,4.8E1,1.86E2,8E0,4E1,1.33E2,5.3E1,3E0,5E0,2.4E1,1.6E1,1.6E1,1.17E2,2.3E1,3E1,4E0,1E0,1.2E1,1.2E1,6E0,1E1,4.7E1,7E1,6E0,1.7E1,9E0,2.1E1,4E1,7E0,2.1E1,4.9E1,2E0,7E0,9E0,1.2E1],"tree_param":{"num_deleted":"0","num_feature":"131","num_nodes":"35","size_leaf_vector":"1"}},{"base_weights":[-1.4501478E-2,-1.0158789E0,2.4796909E-1,-1.6337824E-1,-1.1782357E0,5.485433E-1,-5.0249225E-1,-9.599298E-2,3.9488587E-1,-8.5979986E-1,-1.5772156E-1,3.678991E-1,1.6225531E0,-1.1232724E0,-5.6788E-3,2.2908097E-2,6.119552E-2,-6.012827E-1,-1.0521786E0,1.8771905E-1,7.0554817E-1,2.12901E-1,1.2896035E0,-1.6497858E-1,-8.561133E-2,-6.1687946E-1,2.7239782E-1,-2.3398465E-2,-6.467929E-2,-4.438518E-2,-1.1224333E-1,-2.2465134E-2,4.0235203E-2,-5.5430196E-3,9.610553E-2,1.4327992E-1,7.452911E-2,-1.091545E-1,-3.6177E-2,1.0278899E-2,5.5636466E-2],"categories":[],"categories_nodes":[],"categories_segments":[],"categories_sizes":[],"default_left":[0,0,0,0,0,0,0,0,0,0,0,0,0,0,0,0,0,0,0,0,0,0,0,0,0,0,0,0,0,0,0,0,0,0,0,0,0,0,0,0,0],"id":11,"left_children":[1,3,5,7,9,11,13,-1,15,17,-1,19,21,23,25,-1,-1,27,29,31,33,-1,35,-1,-1,37,39,-1,-1,-1,-1,-1,-1,-1,-1,-1,-1,-1,-1,-1,-1],"loss_changes":[6.2017452E1,6.589554E0,4.24571E1,4.381238E0,3.8529396E0,2.5400894E1,1.6647867E1,0E0,7.575971E-2,6.106739E-1,0E0,6.924719E0,4.582939E-1,1.9635048E0,5.4368157E0,0E0,0E0,6.596565E-2,5.739689E-2,6.905526E0,7.8306885E0,0E0,2.335167E-2,0E0,0E0,8.160286E-1,1.0024042E0,0E0,0E0,0E0,0E0,0E0,0E0,0E0,0E0,0E0,0E0,0E0,0E0,0E0,0E0],"parents":[2147483647,0,0,1,1,2,2,3,3,4,4,5,5,6,6,8,8,9,9,11,11,12,12,13,13,14,14,17,17,18,18,19,19,20,20,22,22,25,25,26,26],"right_children":[2,4,6,8,10,12,14,-1,16,18,-1,20,22,24,26,-1,-1,28,30,32,34,-1,36,-1,-1,38,40,-1,-1,-1,-1,-1,-1,-1,-1,-1,-1,-1,-1,-1,-1],"split_conditions":[9.706218E-1,6.385392E-1,2.0528625E-1,-6.4433074E-1,1.1111111E-1,-2.085474E-1,7.05965E-1,-9.599298E-2,6E-1,6.1737496E-1,-1.5772156E-1,8E-1,5.7229006E-1,6.6063315E-1,6E-1,2.2908097E-2,6.119552E-2,2.2E1,2.2E1,3.3333334E-1,-6.494113E-1,2.12901E-1,6E1,-1.6497858E-1,-8.561133E-2,2.2E1,7.1E-1,-2.3398465E-2,-6.467929E-2,-4.438518E-2,-1.1224333E-1,-2.2465134E-2,4.0235203E-2,-5.5430196E-3,9.610553E-2,1.4327992E-1,7.452911E-2,-1.091545E-1,-3.6177E-2,1.0278899E-2,5.5636466E-2],"split_indices":[18,3,72,68,0,95,67,0,0,67,0,1,67,67,0,0,0,2,2,0,4,0,2,0,0,2,0,0,0,0,0,0,0,0,0,0,0,0,0,0,0],"split_type":[0,0,0,0,0,0,0,0,0,0,0,0,0,0,0,0,0,0,0,0,0,0,0,0,0,0,0,0,0,0,0,0,0,0,0,0,0,0,0,0,0],"sum_hessian":[2.34E2,4.8E1,1.86E2,8E0,4E1,1.33E2,5.3E1,3E0,5E0,2.4E1,1.6E1,1.15E2,1.8E1,2.3E1,3E1,4E0,1E0,1.2E1,1.2E1,7.6E1,3.9E1,5E0,1.3E1,6E0,1.7E1,9E0,2.1E1,2E0,1E1,2E0,1E1,2.6E1,5E1,1E1,2.9E1,9E0,4E0,2E0,7E0,1.4E1,7E0],"tree_param":{"num_deleted":"0","num_feature":"131","num_nodes":"41","size_leaf_vector":"1"}},{"base_weights":[-1.3924804E-2,-3.006533E-1,7.5687563E-1,-8.1607714E-2,-1.0455625E0,1.1370262E0,-2.0332436E-1,-1.0011908E0,1.3849106E-1,-7.836082E-1,-1.4124487E-1,-9.353442E-2,1.2038642E0,-4.5525998E-1,-1.8423596E-2,-1.3599645E-1,-7.661821E-1,7.099935E-1,2.0860955E-3,-5.4792976E-1,-9.5900905E-1,1.4503338E0,8.232606E-1,-5.3174824E-2,4.007888E-3,1.8300494E-2,-1.4201349E-1,1.4175916E-2,-8.279292E-2,3.5728496E-2,1.2384843E-1,-2.4006499E-2,5.9807003E-2,-3.5604026E-2,-6.615436E-2,-4.1426167E-2,-1.0203939E-1,1.6952449E-1,9.62251E-2,8.539804E-2,1.19792465E-2,-3.966582E-3,-1.9548893E-2],"categories":[],"categories_nodes":[],"categories_segments":[],"categories_sizes":[],"default_left":[0,0,0,0,0,0,0,0,0,0,0,0,0,0,0,0,0,0,0,0,0,0,0,0,0,0,0,0,0,0,0,0,0,0,0,0,0,0,0,0,0,0,0],"id":12,"left_children":[1,3,5,7,9,11,13,15,17,19,-1,-1,21,23,25,-1,27,29,31,33,35,37,39,-1,-1,-1,41,-1,-1,-1,-1,-1,-1,-1,-1,-1,-1,-1,-1,-1,-1,-1,-1],"loss_changes":[5.2165012E1,2.7979753E1,2.3592499E1,2.7260134E1,2.6413803E0,7.4976425E0,8.7669116E-1,1.1502075E0,8.495697E0,5.0798607E-1,0E0,0E0,3.0273285E0,3.244127E-1,3.2472357E-1,0E0,1.1264954E0,3.4719763E0,1.2987892E1,4.788065E-2,1.2000084E-2,1.4767036E0,3.2990837E-1,0E0,0E0,0E0,3.6030456E-2,0E0,0E0,0E0,0E0,0E0,0E0,0E0,0E0,0E0,0E0,0E0,0E0,0E0,0E0,0E0,0E0],"parents":[2147483647,0,0,1,1,2,2,3,3,4,4,5,5,6,6,7,7,8,8,9,9,12,12,13,13,14,14,16,16,17,17,18,18,19,19,20,20,21,21,22,22,26,26],"right_children":[2,4,6,8,10,12,14,16,18,20,-1,-1,22,24,26,-1,28,30,32,34,36,38,40,-1,-1,-1,42,-1,-1,-1,-1,-1,-1,-1,-1,-1,-1,-1,-1,-1,-1,-1,-1],"split_conditions":[-6.1187804E-1,9.756351E-2,6.2933975E-1,-6.072628E-1,1.1111111E-1,6.363636E-1,-1.9968717E-1,6.6063315E-1,2.5E-1,6.1737496E-1,-1.4124487E-1,-9.353442E-2,3.3E-1,-6.072628E-1,3E1,-1.3599645E-1,-1.964434E-2,2E-1,7.1E-1,4.5E1,2.2E1,6E1,7.5E1,-5.3174824E-2,4.007888E-3,1.8300494E-2,6E1,1.4175916E-2,-8.279292E-2,3.5728496E-2,1.2384843E-1,-2.4006499E-2,5.9807003E-2,-3.5604026E-2,-6.615436E-2,-4.1426167E-2,-1.0203939E-1,1.6952449E-1,9.62251E-2,8.539804E-2,1.19792465E-2,-3.966582E-3,-1.9548893E-2],"split_indices":[121,64,3,68,0,1,40,67,0,67,0,0,0,4,2,0,16,0,0,2,2,2,2,0,0,0,2,0,0,0,0,0,0,0,0,0,0,0,0,0,0,0,0],"split_type":[0,0,0,0,0,0,0,0,0,0,0,0,0,0,0,0,0,0,0,0,0,0,0,0,0,0,0,0,0,0,0,0,0,0,0,0,0,0,0,0,0,0,0],"sum_hessian":[2.34E2,1.71E2,6.3E1,1.33E2,3.8E1,4.5E1,1.8E1,2.5E1,1.08E2,2.4E1,1.4E1,1E0,4.4E1,7E0,1.1E1,8E0,1.7E1,2E1,8.8E1,1.2E1,1.2E1,2.5E1,1.9E1,6E0,1E0,4E0,7E0,1E0,1.6E1,1.3E1,7E0,6.3E1,2.5E1,6E0,6E0,2E0,1E1,1.5E1,1E1,1.8E1,1E0,3E0,4E0],"tree_param":{"num_deleted":"0","num_feature":"131","num_nodes":"43","size_leaf_vector":"1"}},{"base_weights":[-1.3300392E-2,-2.728886E-1,6.8455076E-1,-7.35159E-2,-9.5091563E-1,1.0291842E0,-1.8585406E-1,-9.0894145E-1,1.2643439E-1,-7.150563E-1,-1.2806202E-1,-8.8857695E-2,1.0915474E0,-4.1587973E-1,-1.7015776E-2,-1.2390789E-1,-6.9337595E-1,6.4659303E-1,2.2796995E-3,-4.9647063E-1,-8.7863766E-2,1.8347554E-1,9.5277745E-1,-4.8616968E-2,3.807497E-3,1.6836452E-1,-1.3075149E-1,1.3467121E-2,-7.5000644E-2,3.2410853E-2,1.13011695E-1,-2.164337E-2,5.4056346E-2,-3.2552253E-2,-5.9649438E-2,1.0548561E-1,5.8776494E-2,1.8488014E-2,5.115104E-3,-3.6690712E-3,-1.7984983E-2],"categories":[],"categories_nodes":[],"categories_segments":[],"categories_sizes":[],"default_left":[0,0,0,0,0,0,0,0,0,0,0,0,0,0,0,0,0,0,0,0,0,0,0,0,0,0,0,0,0,0,0,0,0,0,0,0,0,0,0,0,0],"id":13,"left_children":[1,3,5,7,9,11,13,15,17,19,-1,-1,21,23,25,-1,27,29,31,33,-1,-1,35,-1,-1,37,39,-1,-1,-1,-1,-1,-1,-1,-1,-1,-1,-1,-1,-1,-1],"loss_changes":[4.275798E1,2.3181072E1,1.93894E1,2.249876E1,2.117073E0,6.471409E0,7.308291E-1,9.911747E-1,7.0377607E0,4.5769787E-1,0E0,0E0,2.8929596E0,2.7377856E-1,2.7502623E-1,0E0,9.450731E-1,2.908228E0,1.0594955E1,2.8112888E-2,0E0,0E0,8.7039185E-1,0E0,0E0,2.2244453E-4,3.0347005E-2,0E0,0E0,0E0,0E0,0E0,0E0,0E0,0E0,0E0,0E0,0E0,0E0,0E0,0E0],"parents":[2147483647,0,0,1,1,2,2,3,3,4,4,5,5,6,6,7,7,8,8,9,9,12,12,13,13,14,14,16,16,17,17,18,18,19,19,22,22,25,25,26,26],"right_children":[2,4,6,8,10,12,14,16,18,20,-1,-1,22,24,26,-1,28,30,32,34,-1,-1,36,-1,-1,38,40,-1,-1,-1,-1,-1,-1,-1,-1,-1,-1,-1,-1,-1,-1],"split_conditions":[-6.1187804E-1,9.756351E-2,6.2933975E-1,-6.072628E-1,1.1111111E-1,6.363636E-1,-1.9968717E-1,6.6063315E-1,2.5E-1,4.5E1,-1.2806202E-1,-8.8857695E-2,5.7229006E-1,-6.072628E-1,3E1,-1.2390789E-1,-1.964434E-2,2E-1,7.1E-1,6.1737496E-1,-8.7863766E-2,1.8347554E-1,6.5E1,-4.8616968E-2,3.807497E-3,2.2E1,6E1,1.3467121E-2,-7.5000644E-2,3.2410853E-2,1.13011695E-1,-2.164337E-2,5.4056346E-2,-3.2552253E-2,-5.9649438E-2,1.0548561E-1,5.8776494E-2,1.8488014E-2,5.115104E-3,-3.6690712E-3,-1.7984983E-2],"split_indices":[121,64,3,68,0,1,40,67,0,2,0,0,67,4,2,0,16,0,0,67,0,0,2,0,0,2,2,0,0,0,0,0,0,0,0,0,0,0,0,0,0],"split_type":[0,0,0,0,0,0,0,0,0,0,0,0,0,0,0,0,0,0,0,0,0,0,0,0,0,0,0,0,0,0,0,0,0,0,0,0,0,0,0,0,0],"sum_hessian":[2.34E2,1.71E2,6.3E1,1.33E2,3.8E1,4.5E1,1.8E1,2.5E1,1.08E2,2.4E1,1.4E1,1E0,4.4E1,7E0,1.1E1,8E0,1.7E1,2E1,8.8E1,1.2E1,1.2E1,5E0,3.9E1,6E0,1E0,4E0,7E0,1E0,1.6E1,1.3E1,7E0,6.3E1,2.5E1,6E0,6E0,2.9E1,1E1,3E0,1E0,3E0,4E0],"tree_param":{"num_deleted":"0","num_feature":"131","num_nodes":"41","size_leaf_vector":"1"}},{"base_weights":[-1.2394692E-2,-2.4743545E-1,6.19471E-1,-6.6221125E-2,-8.6372477E-1,9.318937E-1,-1.6952448E-1,-8.251797E-1,1.154224E-1,-6.5075326E-1,-1.16109565E-1,-8.441481E-2,9.901201E-1,-3.79893E-1,-1.5151739E-2,-1.1289387E-1,-6.274569E-1,6.2307138E-2,8.161374E-3,-4.4538763E-1,-8.0606097E-1,1.6818592E-1,8.616063E-1,-4.4449806E-2,3.6171197E-3,1.5624876E-2,-1.20383084E-1,1.2793756E-2,-6.794176E-2,-1.6286133E-2,4.661758E-2,-1.729482E-2,-4.791995E-2,-4.6086494E-2,-9.082743E-2,9.528868E-2,5.343317E-2,-3.3938766E-3,-1.6546194E-2],"categories":[],"categories_nodes":[],"categories_segments":[],"categories_sizes":[],"default_left":[0,0,0,0,0,0,0,0,0,0,0,0,0,0,0,0,0,0,0,0,0,0,0,0,0,0,0,0,0,0,0,0,0,0,0,0,0,0,0],"id":14,"left_children":[1,3,5,7,9,11,13,15,17,19,-1,-1,21,23,25,-1,27,-1,29,31,33,-1,35,-1,-1,-1,37,-1,-1,-1,-1,-1,-1,-1,-1,-1,-1,-1,-1],"loss_changes":[3.5054115E1,1.915184E1,1.5933985E1,1.8568472E1,1.714344E0,5.592785E0,6.1127216E-1,8.532009E-1,5.9300685E0,4.3836212E-1,0E0,0E0,2.5513153E0,2.3111689E-1,2.3525017E-1,0E0,7.934375E-1,0E0,7.204031E0,3.6875248E-2,4.0094376E-2,0E0,6.8579483E-1,0E0,0E0,0E0,2.5558904E-2,0E0,0E0,0E0,0E0,0E0,0E0,0E0,0E0,0E0,0E0,0E0,0E0],"parents":[2147483647,0,0,1,1,2,2,3,3,4,4,5,5,6,6,7,7,8,8,9,9,12,12,13,13,14,14,16,16,18,18,19,19,20,20,22,22,26,26],"right_children":[2,4,6,8,10,12,14,16,18,20,-1,-1,22,24,26,-1,28,-1,30,32,34,-1,36,-1,-1,-1,38,-1,-1,-1,-1,-1,-1,-1,-1,-1,-1,-1,-1],"split_conditions":[-6.1187804E-1,9.756351E-2,6.2933975E-1,-6.072628E-1,1.1111111E-1,6.363636E-1,-1.9968717E-1,6.6063315E-1,1.5185402E-1,6.1737496E-1,-1.16109565E-1,-8.441481E-2,5.7229006E-1,-6.072628E-1,3E1,-1.1289387E-1,-1.964434E-2,6.2307138E-2,7.1E-1,2.2E1,3.5E1,1.6818592E-1,6.5E1,-4.4449806E-2,3.6171197E-3,1.5624876E-2,6E1,1.2793756E-2,-6.794176E-2,-1.6286133E-2,4.661758E-2,-1.729482E-2,-4.791995E-2,-4.6086494E-2,-9.082743E-2,9.528868E-2,5.343317E-2,-3.3938766E-3,-1.6546194E-2],"split_indices":[121,64,3,68,0,1,40,67,33,67,0,0,67,4,2,0,16,0,0,2,2,0,2,0,0,0,2,0,0,0,0,0,0,0,0,0,0,0,0],"split_type":[0,0,0,0,0,0,0,0,0,0,0,0,0,0,0,0,0,0,0,0,0,0,0,0,0,0,0,0,0,0,0,0,0,0,0,0,0,0,0],"sum_hessian":[2.34E2,1.71E2,6.3E1,1.33E2,3.8E1,4.5E1,1.8E1,2.5E1,1.08E2,2.4E1,1.4E1,1E0,4.4E1,7E0,1.1E1,8E0,1.7E1,1.8E1,9E1,1.2E1,1.2E1,5E0,3.9E1,6E0,1E0,4E0,7E0,1E0,1.6E1,6.6E1,2.4E1,2E0,1E1,4E0,8E0,2.9E1,1E1,3E0,4E0],"tree_param":{"num_deleted":"0","num_feature":"131","num_nodes":"39","size_leaf_vector":"1"}},{"base_weights":[-1.2033166E-2,-2.2498062E-1,5.6045115E-1,-7.135353E-1,-3.557578E-2,8.437585E-1,-1.5494828E-1,-9.9999845E-2,-8.1584626E-1,-7.6150113E-1,1.09948106E-1,-8.019408E-2,8.981505E-1,-3.470078E-1,-1.39962435E-2,-6.083366E-2,3.266695E-1,-5.937631E-1,-1.0944482E-1,-1.1373252E-1,-5.729734E-1,5.856564E-1,-8.873333E-3,1.1138906E0,5.727808E-1,-4.0639825E-2,3.4362555E-3,1.4374876E-1,-1.1083734E-1,1.6170073E-2,4.9327232E-2,-4.0586542E-2,-7.3598675E-2,-6.326017E-2,-2.3593789E-2,2.810665E-2,1.0454817E-1,-7.454341E-2,1.1068885E-2,1.3197987E-1,7.131254E-2,3.3090226E-2,7.0645794E-2,1.5929544E-2,4.0781023E-3,-3.139353E-3,-1.5222493E-2],"categories":[],"categories_nodes":[],"categories_segments":[],"categories_sizes":[],"default_left":[0,0,0,0,0,0,0,0,0,0,0,0,0,0,0,0,0,0,0,0,0,0,0,0,0,0,0,0,0,0,0,0,0,0,0,0,0,0,0,0,0,0,0,0,0,0,0],"id":15,"left_children":[1,3,5,7,9,11,13,15,17,19,21,-1,23,25,27,-1,29,31,-1,-1,33,35,37,39,41,-1,-1,43,45,-1,-1,-1,-1,-1,-1,-1,-1,-1,-1,-1,-1,-1,-1,-1,-1,-1,-1],"loss_changes":[2.8774727E1,1.5890573E1,1.3102123E1,2.9314423E0,1.3288662E1,4.8378563E0,5.094957E-1,1.9338585E0,1.8869419E0,8.3626175E-1,5.9402523E0,0E0,2.5207748E0,1.9516277E-1,1.9924714E-1,0E0,5.765879E-2,3.6937523E-1,0E0,0E0,1.722951E-1,2.6473713E0,7.56802E0,1.2043571E0,4.1290426E-1,0E0,0E0,1.5077963E-3,2.1525018E-2,0E0,0E0,0E0,0E0,0E0,0E0,0E0,0E0,0E0,0E0,0E0,0E0,0E0,0E0,0E0,0E0,0E0,0E0],"parents":[2147483647,0,0,1,1,2,2,3,3,4,4,5,5,6,6,7,7,8,8,9,9,10,10,12,12,13,13,14,14,16,16,17,17,20,20,21,21,22,22,23,23,24,24,27,27,28,28],"right_children":[2,4,6,8,10,12,14,16,18,20,22,-1,24,26,28,-1,30,32,-1,-1,34,36,38,40,42,-1,-1,44,46,-1,-1,-1,-1,-1,-1,-1,-1,-1,-1,-1,-1,-1,-1,-1,-1,-1,-1],"split_conditions":[-6.1187804E-1,9.706218E-1,6.2933975E-1,6.385392E-1,-6.072628E-1,6.363636E-1,-1.9968717E-1,-6.4433074E-1,1.1111111E-1,6.6063315E-1,2.5E-1,-8.019408E-2,3.3E-1,-6.072628E-1,3E1,-6.083366E-2,6E-1,6.1737496E-1,-1.0944482E-1,-1.1373252E-1,7E1,2E-1,3.3333334E-1,6E1,6.252673E-1,-4.0639825E-2,3.4362555E-3,2.2E1,6E1,1.6170073E-2,4.9327232E-2,-4.0586542E-2,-7.3598675E-2,-6.326017E-2,-2.3593789E-2,2.810665E-2,1.0454817E-1,-7.454341E-2,1.1068885E-2,1.3197987E-1,7.131254E-2,3.3090226E-2,7.0645794E-2,1.5929544E-2,4.0781023E-3,-3.139353E-3,-1.5222493E-2],"split_indices":[121,18,3,3,68,1,40,68,0,67,0,0,0,4,2,0,0,67,0,0,2,0,0,2,3,0,0,2,2,0,0,0,0,0,0,0,0,0,0,0,0,0,0,0,0,0,0],"split_type":[0,0,0,0,0,0,0,0,0,0,0,0,0,0,0,0,0,0,0,0,0,0,0,0,0,0,0,0,0,0,0,0,0,0,0,0,0,0,0,0,0,0,0,0,0,0,0],"sum_hessian":[2.34E2,1.71E2,6.3E1,4.7E1,1.24E2,4.5E1,1.8E1,7E0,4E1,2E1,1.04E2,1E0,4.4E1,7E0,1.1E1,3E0,4E0,2.4E1,1.6E1,5E0,1.5E1,2E1,8.4E1,2.5E1,1.9E1,6E0,1E0,4E0,7E0,3E0,1E0,1.2E1,1.2E1,1.2E1,3E0,1.3E1,7E0,1.1E1,7.3E1,1.5E1,1E1,8E0,1.1E1,3E0,1E0,3E0,4E0],"tree_param":{"num_deleted":"0","num_feature":"131","num_nodes":"47","size_leaf_vector":"1"}},{"base_weights":[-1.1506838E-2,-2.0451958E-1,5.0739473E-1,-6.467436E-1,-3.3069406E-2,7.643138E-1,-1.4132488E-1,-8.941689E-2,-7.3971605E-1,8.969942E-2,-7.6784515E-1,-7.618438E-2,8.1515825E-1,-3.169574E-1,-1.2459437E-2,-5.6271132E-2,3.0710202E-1,-5.3895426E-1,-9.914412E-2,5.334077E-1,-1.7204827E-2,-9.104305E-2,-3.3093622E-1,1.3140379E-1,6.7177784E-1,-3.7156407E-2,3.2644512E-3,1.3337536E-1,-1.02048755E-1,1.4957321E-2,4.6860863E-2,-3.5565596E-2,-6.807945E-2,2.5496745E-2,9.540022E-2,-1.8412417E-2,4.1079693E-2,-3.569255E-2,-1.0049499E-2,3.1153888E-2,7.9366125E-2,1.4734817E-2,3.8742067E-3,-2.9038906E-3,-1.4004688E-2],"categories":[],"categories_nodes":[],"categories_segments":[],"categories_sizes":[],"default_left":[0,0,0,0,0,0,0,0,0,0,0,0,0,0,0,0,0,0,0,0,0,0,0,0,0,0,0,0,0,0,0,0,0,0,0,0,0,0,0,0,0,0,0,0,0],"id":16,"left_children":[1,3,5,7,9,11,13,15,17,19,21,-1,23,25,27,-1,29,31,-1,33,35,-1,37,-1,39,-1,-1,41,43,-1,-1,-1,-1,-1,-1,-1,-1,-1,-1,-1,-1,-1,-1,-1,-1],"loss_changes":[2.3640106E1,1.3019547E1,1.0774797E1,2.4210243E0,1.134482E1,4.1904697E0,4.260772E-1,1.6741712E0,1.5376701E0,5.1320815E0,8.2004833E-1,0E0,2.33609E0,1.6485417E-1,1.7039366E-1,0E0,5.7118386E-2,4.0784836E-1,0E0,2.2160797E0,6.3625135E0,0E0,6.467104E-5,0E0,1.377306E0,0E0,0E0,9.028986E-4,1.8127091E-2,0E0,0E0,0E0,0E0,0E0,0E0,0E0,0E0,0E0,0E0,0E0,0E0,0E0,0E0,0E0,0E0],"parents":[2147483647,0,0,1,1,2,2,3,3,4,4,5,5,6,6,7,7,8,8,9,9,10,10,12,12,13,13,14,14,16,16,17,17,19,19,20,20,22,22,24,24,27,27,28,28],"right_children":[2,4,6,8,10,12,14,16,18,20,22,-1,24,26,28,-1,30,32,-1,34,36,-1,38,-1,40,-1,-1,42,44,-1,-1,-1,-1,-1,-1,-1,-1,-1,-1,-1,-1,-1,-1,-1,-1],"split_conditions":[-6.1187804E-1,9.706218E-1,6.2933975E-1,6.385392E-1,-6.312581E-1,6.363636E-1,-1.9968717E-1,-6.4433074E-1,1.1111111E-1,2.5E-1,5E1,-7.618438E-2,5.7583684E-1,-6.072628E-1,3E1,-5.6271132E-2,6E-1,4.5E1,-9.914412E-2,2E-1,7.1E-1,-9.104305E-2,9.5E1,1.3140379E-1,7.5E-1,-3.7156407E-2,3.2644512E-3,2.2E1,6E1,1.4957321E-2,4.6860863E-2,-3.5565596E-2,-6.807945E-2,2.5496745E-2,9.540022E-2,-1.8412417E-2,4.1079693E-2,-3.569255E-2,-1.0049499E-2,3.1153888E-2,7.9366125E-2,1.4734817E-2,3.8742067E-3,-2.9038906E-3,-1.4004688E-2],"split_indices":[121,18,3,3,115,1,40,68,0,0,2,0,67,4,2,0,0,2,0,0,0,0,2,0,1,0,0,2,2,0,0,0,0,0,0,0,0,0,0,0,0,0,0,0,0],"split_type":[0,0,0,0,0,0,0,0,0,0,0,0,0,0,0,0,0,0,0,0,0,0,0,0,0,0,0,0,0,0,0,0,0,0,0,0,0,0,0,0,0,0,0,0,0],"sum_hessian":[2.34E2,1.71E2,6.3E1,4.7E1,1.24E2,4.5E1,1.8E1,7E0,4E1,1.07E2,1.7E1,1E0,4.4E1,7E0,1.1E1,3E0,4E0,2.4E1,1.6E1,2E1,8.7E1,1.2E1,5E0,8E0,3.6E1,6E0,1E0,4E0,7E0,3E0,1E0,1.2E1,1.2E1,1.3E1,7E0,6.3E1,2.4E1,4E0,1E0,1E1,2.6E1,3E0,1E0,3E0,4E0],"tree_param":{"num_deleted":"0","num_feature":"131","num_nodes":"45","size_leaf_vector":"1"}},{"base_weights":[-1.05982805E-2,-9.554714E-2,9.601649E-1,-3.1728804E-1,2.8067568E-1,1.3424398E-1,7.2774965E-1,-1.1302492E-1,-6.818213E-1,5.1721835E-1,1.3139139E-1,8.7990366E-2,4.4989508E-2,-4.093973E-1,8.664972E-2,-3.4385064E-1,-7.8214014E-1,9.710147E-2,2.874374E-1,-4.484564E-2,4.0680107E-1,1.6276443E-2,-6.6765904E-2,-3.944176E-3,6.453964E-2,-2.0048155E-2,-4.380982E-2,-5.0234478E-2,-9.127649E-2,1.3552281E-2,5.936083E-2,-1.715507E-2,2.5106056E-2,6.384552E-2,1.9916039E-2],"categories":[],"categories_nodes":[],"categories_segments":[],"categories_sizes":[],"default_left":[0,0,0,0,0,0,0,0,0,0,0,0,0,0,0,0,0,0,0,0,0,0,0,0,0,0,0,0,0,0,0,0,0,0,0],"id":17,"left_children":[1,3,5,7,9,-1,11,13,15,17,19,-1,-1,21,23,25,27,-1,29,31,33,-1,-1,-1,-1,-1,-1,-1,-1,-1,-1,-1,-1,-1,-1],"loss_changes":[1.947107E1,1.819206E1,7.111244E-1,1.0124052E1,2.7923222E0,0E0,1.9600916E-1,5.3023205E0,1.3923969E0,2.9533806E0,2.4936502E0,0E0,0E0,5.4283004E0,3.8299286E0,8.782792E-2,8.937607E-1,0E0,9.428123E-1,1.2428395E0,8.3486176E-1,0E0,0E0,0E0,0E0,0E0,0E0,0E0,0E0,0E0,0E0,0E0,0E0,0E0,0E0],"parents":[2147483647,0,0,1,1,2,2,3,3,4,4,6,6,7,7,8,8,9,9,10,10,13,13,14,14,15,15,16,16,18,18,19,19,20,20],"right_children":[2,4,6,8,10,-1,12,14,16,18,20,-1,-1,22,24,26,28,-1,30,32,34,-1,-1,-1,-1,-1,-1,-1,-1,-1,-1,-1,-1,-1,-1],"split_conditions":[-2.085474E-1,-1.2809879E-1,5.7229006E-1,-2.3510797E-1,4.5E1,1.3424398E-1,4.5E1,2.2E1,9.090909E-2,5.980176E-1,8E-1,8.7990366E-2,4.4989508E-2,3.397958E-1,-1.5396721E-2,4.5E1,1.448945E-1,9.710147E-2,6.7E-1,8E-1,8.333333E-1,1.6276443E-2,-6.6765904E-2,-3.944176E-3,6.453964E-2,-2.0048155E-2,-4.380982E-2,-5.0234478E-2,-9.127649E-2,1.3552281E-2,5.936083E-2,-1.715507E-2,2.5106056E-2,6.384552E-2,1.9916039E-2],"split_indices":[95,31,67,95,2,0,2,2,0,67,1,0,0,28,80,2,69,0,0,0,1,0,0,0,0,0,0,0,0,0,0,0,0,0,0],"split_type":[0,0,0,0,0,0,0,0,0,0,0,0,0,0,0,0,0,0,0,0,0,0,0,0,0,0,0,0,0,0,0,0,0,0,0],"sum_hessian":[2.34E2,2.16E2,1.8E1,1.36E2,8E1,5E0,1.3E1,8.8E1,4.8E1,3E1,5E1,7E0,6E0,3.5E1,5.3E1,1.2E1,3.6E1,9E0,2.1E1,3.1E1,1.9E1,1.1E1,2.4E1,4.4E1,9E0,6E0,6E0,1.3E1,2.3E1,1.5E1,6E0,2.2E1,9E0,8E0,1.1E1],"tree_param":{"num_deleted":"0","num_feature":"131","num_nodes":"35","size_leaf_vector":"1"}},{"base_weights":[-8.118463E-3,-1.6934806E-1,4.253129E-1,-2.655876E-1,3.812889E-1,6.4150214E-1,-1.2047753E-1,-2.0564517E-2,-5.348192E-1,4.5976552E-1,1.026001E-1,-6.781134E-2,6.8589616E-1,-2.6736724E-1,-1.2511253E-2,-5.118608E-1,1.1447744E-1,-2.9514486E-1,-6.121075E-1,6.1526593E-2,3.4917495E-1,1.5109285E-2,5.2984428E-2,1.23056985E-1,5.870477E-1,-3.239612E-1,6.439519E-3,9.7589016E-2,-1.0509559E-1,1.589246E-2,-1.2863599E-1,-4.2780146E-2,2.027373E-2,-4.2571988E-2,-6.2389197E-3,-3.143777E-2,-6.93567E-2,3.6191177E-2,9.179807E-3,1.2812758E-2,-3.9820196E-3,6.63762E-2,3.2445896E-2,-1.9499665E-2,-4.3091502E-2,1.1478271E-2,5.810261E-4,-4.6710134E-3,-1.3720715E-2],"categories":[],"categories_nodes":[],"categories_segments":[],"categories_sizes":[],"default_left":[0,0,0,0,0,0,0,0,0,0,0,0,0,0,0,0,0,0,0,0,0,0,0,0,0,0,0,0,0,0,0,0,0,0,0,0,0,0,0,0,0,0,0,0,0,0,0,0,0],"id":18,"left_children":[1,3,5,7,9,11,13,15,17,19,21,-1,23,25,27,29,31,33,35,-1,37,-1,39,-1,41,43,-1,45,47,-1,-1,-1,-1,-1,-1,-1,-1,-1,-1,-1,-1,-1,-1,-1,-1,-1,-1,-1,-1],"loss_changes":[1.6494287E1,9.21607E0,7.6289034E0,9.686291E0,5.214629E-1,3.159933E0,2.9797846E-1,5.2335544E0,1.1160221E0,1.2910223E-1,8.836433E-3,0E0,1.7004032E0,1.7106754E-1,1.325789E-1,9.03632E0,3.0541418E0,5.508894E-1,1.0431118E0,0E0,1.2671471E-2,0E0,3.997022E-2,0E0,5.904083E-1,1.2525797E-2,0E0,8.801181E-3,6.7149773E-3,0E0,0E0,0E0,0E0,0E0,0E0,0E0,0E0,0E0,0E0,0E0,0E0,0E0,0E0,0E0,0E0,0E0,0E0,0E0,0E0],"parents":[2147483647,0,0,1,1,2,2,3,3,4,4,5,5,6,6,7,7,8,8,9,9,10,10,12,12,13,13,14,14,15,15,16,16,17,17,18,18,20,20,22,22,24,24,25,25,27,27,28,28],"right_children":[2,4,6,8,10,12,14,16,18,20,22,-1,24,26,28,30,32,34,36,-1,38,-1,40,-1,42,44,-1,46,48,-1,-1,-1,-1,-1,-1,-1,-1,-1,-1,-1,-1,-1,-1,-1,-1,-1,-1,-1,-1],"split_conditions":[-6.1187804E-1,7.1E-1,6.2933975E-1,-2.3775598E-1,7E1,6.363636E-1,-1.9968717E-1,2.2E1,-1.7439764E-2,2.5E-1,2.5E-1,-6.781134E-2,5.7229006E-1,-6.072628E-1,4E1,3.397958E-1,-6.494113E-1,6E-1,9.090909E-2,6.1526593E-2,8E-1,1.5109285E-2,7.5E-1,1.23056985E-1,6.5E1,3.3E-1,6.439519E-3,3E1,7E1,1.589246E-2,-1.2863599E-1,-4.2780146E-2,2.027373E-2,-4.2571988E-2,-6.2389197E-3,-3.143777E-2,-6.93567E-2,3.6191177E-2,9.179807E-3,1.2812758E-2,-3.9820196E-3,6.63762E-2,3.2445896E-2,-1.9499665E-2,-4.3091502E-2,1.1478271E-2,5.810261E-4,-4.6710134E-3,-1.3720715E-2],"split_indices":[121,0,3,95,2,1,40,2,16,1,1,0,67,4,2,28,68,0,0,0,0,0,0,0,2,0,0,2,2,0,0,0,0,0,0,0,0,0,0,0,0,0,0,0,0,0,0,0,0],"split_type":[0,0,0,0,0,0,0,0,0,0,0,0,0,0,0,0,0,0,0,0,0,0,0,0,0,0,0,0,0,0,0,0,0,0,0,0,0,0,0,0,0,0,0,0,0,0,0,0,0],"sum_hessian":[2.34E2,1.71E2,6.3E1,1.46E2,2.5E1,4.5E1,1.8E1,7.7E1,6.9E1,1.9E1,6E0,1E0,4.4E1,7E0,1.1E1,1.6E1,6.1E1,1.8E1,5.1E1,6E0,1.3E1,2E0,4E0,5E0,3.9E1,6E0,1E0,5E0,6E0,9E0,7E0,8E0,5.3E1,1.1E1,7E0,1.2E1,3.9E1,1.2E1,1E0,2E0,2E0,2.9E1,1E1,4E0,2E0,4E0,1E0,3E0,3E0],"tree_param":{"num_deleted":"0","num_feature":"131","num_nodes":"49","size_leaf_vector":"1"}},{"base_weights":[-7.5722584E-3,-7.890815E-2,8.075573E-1,-2.636548E-1,2.3453872E-1,1.1280221E-1,6.125326E-1,-9.554474E-2,-5.636168E-1,4.4151565E-1,1.0413041E-1,8.04503E-2,4.1649323E-2,-3.429397E-1,7.115458E-2,-3.4936726E-1,-6.876626E-1,8.238851E-2,2.4764246E-1,-4.798454E-2,3.423078E-1,1.3544901E-2,-5.5884868E-2,-4.107329E-3,5.690645E-2,-1.7653523E-2,-5.0454583E-2,-3.337407E-2,-7.622372E-2,-1.9526577E-2,3.2785248E-2,-1.734547E-2,1.7558694E-2,5.507326E-2,1.5746355E-2],"categories":[],"categories_nodes":[],"categories_segments":[],"categories_sizes":[],"default_left":[0,0,0,0,0,0,0,0,0,0,0,0,0,0,0,0,0,0,0,0,0,0,0,0,0,0,0,0,0,0,0,0,0,0,0],"id":19,"left_children":[1,3,5,7,9,-1,11,13,15,17,19,-1,-1,21,23,25,27,-1,29,31,33,-1,-1,-1,-1,-1,-1,-1,-1,-1,-1,-1,-1,-1,-1],"loss_changes":[1.3728502E1,1.2627929E1,4.9652195E-1,6.854597E0,2.1403375E0,0E0,1.918025E-1,3.6948125E0,1.0620146E0,2.094038E0,1.8641729E0,0E0,0E0,3.7940793E0,3.0408592E0,4.4732618E-1,5.3741837E-1,0E0,8.455832E-1,9.2810595E-1,6.8380237E-1,0E0,0E0,0E0,0E0,0E0,0E0,0E0,0E0,0E0,0E0,0E0,0E0,0E0,0E0],"parents":[2147483647,0,0,1,1,2,2,3,3,4,4,6,6,7,7,8,8,9,9,10,10,13,13,14,14,15,15,16,16,18,18,19,19,20,20],"right_children":[2,4,6,8,10,-1,12,14,16,18,20,-1,-1,22,24,26,28,-1,30,32,34,-1,-1,-1,-1,-1,-1,-1,-1,-1,-1,-1,-1,-1,-1],"split_conditions":[-2.085474E-1,-1.2809879E-1,5.7229006E-1,-2.3510797E-1,4.5E1,1.1280221E-1,2.5E1,2.2E1,1.448945E-1,5.980176E-1,8E-1,8.04503E-2,4.1649323E-2,3.397958E-1,-1.5396721E-2,4.5E1,9.090909E-2,8.238851E-2,2E-1,6.7E-1,8.333333E-1,1.3544901E-2,-5.5884868E-2,-4.107329E-3,5.690645E-2,-1.7653523E-2,-5.0454583E-2,-3.337407E-2,-7.622372E-2,-1.9526577E-2,3.2785248E-2,-1.734547E-2,1.7558694E-2,5.507326E-2,1.5746355E-2],"split_indices":[95,31,67,95,2,0,2,2,69,67,1,0,0,28,80,2,0,0,0,0,1,0,0,0,0,0,0,0,0,0,0,0,0,0,0],"split_type":[0,0,0,0,0,0,0,0,0,0,0,0,0,0,0,0,0,0,0,0,0,0,0,0,0,0,0,0,0,0,0,0,0,0,0],"sum_hessian":[2.34E2,2.16E2,1.8E1,1.36E2,8E1,5E0,1.3E1,8.8E1,4.8E1,3E1,5E1,5E0,8E0,3.5E1,5.3E1,1.9E1,2.9E1,9E0,2.1E1,3.1E1,1.9E1,1.1E1,2.4E1,4.4E1,9E0,1E1,9E0,6E0,2.3E1,3E0,1.8E1,2E1,1.1E1,8E0,1.1E1],"tree_param":{"num_deleted":"0","num_feature":"131","num_nodes":"35","size_leaf_vector":"1"}},{"base_weights":[-5.8178515E-3,-1.4053234E-1,3.5631827E-1,-2.2496766E-1,3.4225696E-1,5.385044E-1,-1.0351753E-1,-2.6830193E-2,-4.4253558E-1,4.6799507E-2,1.8051921E-1,-6.0609598E-2,5.7740873E-1,-2.2720039E-1,-1.2435834E-2,-4.5178443E-1,9.012226E-2,-2.599269E-1,-5.007477E-1,2.2209683E-1,3.1445384E-2,1.03402E0,4.9448186E-1,-2.851198E-1,8.911776E-3,8.443657E-2,-9.369278E-2,7.502136E-3,-1.21508144E-1,2.759841E-2,-1.1732985E-2,-3.7118297E-2,-6.0551944E-3,-3.6792785E-2,-6.403738E-2,2.4711674E-2,8.134476E-3,6.424308E-3,-9.015401E-5,1.1226232E-1,2.955017E-2,5.6033473E-2,2.6993027E-2,-1.6552048E-2,-3.894121E-2,9.829446E-3,7.573605E-4,-4.0126205E-3,-1.23836165E-2],"categories":[],"categories_nodes":[],"categories_segments":[],"categories_sizes":[],"default_left":[0,0,0,0,0,0,0,0,0,0,0,0,0,0,0,0,0,0,0,0,0,0,0,0,0,0,0,0,0,0,0,0,0,0,0,0,0,0,0,0,0,0,0,0,0,0,0,0,0],"id":20,"left_children":[1,3,5,7,9,11,13,15,17,-1,19,-1,21,23,25,27,29,31,33,35,37,39,41,43,-1,45,47,-1,-1,-1,-1,-1,-1,-1,-1,-1,-1,-1,-1,-1,-1,-1,-1,-1,-1,-1,-1,-1,-1],"loss_changes":[1.1514545E1,7.088484E0,5.417391E0,6.325055E0,4.4426942E-1,2.3983421E0,2.1121421E-1,3.917272E0,6.1394596E-1,0E0,7.359183E-2,0E0,1.1926374E0,1.7197695E-1,1.0236977E-1,6.927015E0,2.4229422E0,3.9897585E-1,7.28734E-1,1.5114397E-2,4.301536E-3,6.0873985E-2,4.4024277E-1,2.2857368E-2,0E0,5.6465007E-3,6.333664E-3,0E0,0E0,0E0,0E0,0E0,0E0,0E0,0E0,0E0,0E0,0E0,0E0,0E0,0E0,0E0,0E0,0E0,0E0,0E0,0E0,0E0,0E0],"parents":[2147483647,0,0,1,1,2,2,3,3,4,4,5,5,6,6,7,7,8,8,10,10,12,12,13,13,14,14,15,15,16,16,17,17,18,18,19,19,20,20,21,21,22,22,23,23,25,25,26,26],"right_children":[2,4,6,8,10,12,14,16,18,-1,20,-1,22,24,26,28,30,32,34,36,38,40,42,44,-1,46,48,-1,-1,-1,-1,-1,-1,-1,-1,-1,-1,-1,-1,-1,-1,-1,-1,-1,-1,-1,-1,-1,-1],"split_conditions":[-6.1187804E-1,7.1E-1,6.2933975E-1,-2.3775598E-1,5E1,6.363636E-1,-1.9968717E-1,2.2E1,-1.7439764E-2,4.6799507E-2,8E1,-6.0609598E-2,5.7229006E-1,-6.072628E-1,4E1,-2.976812E-1,6.20723E-1,6E-1,-2.2795105E-1,2.2E0,7.5E-1,7.5E1,6.5E1,3.3E-1,8.911776E-3,3E1,7E1,7.502136E-3,-1.21508144E-1,2.759841E-2,-1.1732985E-2,-3.7118297E-2,-6.0551944E-3,-3.6792785E-2,-6.403738E-2,2.4711674E-2,8.134476E-3,6.424308E-3,-9.015401E-5,1.1226232E-1,2.955017E-2,5.6033473E-2,2.6993027E-2,-1.6552048E-2,-3.894121E-2,9.829446E-3,7.573605E-4,-4.0126205E-3,-1.23836165E-2],"split_indices":[121,0,3,95,2,1,40,2,16,0,2,0,67,4,2,42,67,0,95,0,0,2,2,0,0,2,2,0,0,0,0,0,0,0,0,0,0,0,0,0,0,0,0,0,0,0,0,0,0],"split_type":[0,0,0,0,0,0,0,0,0,0,0,0,0,0,0,0,0,0,0,0,0,0,0,0,0,0,0,0,0,0,0,0,0,0,0,0,0,0,0,0,0,0,0,0,0,0,0,0,0],"sum_hessian":[2.34E2,1.71E2,6.3E1,1.46E2,2.5E1,4.5E1,1.8E1,7.7E1,6.9E1,1.3E1,1.2E1,1E0,4.4E1,7E0,1.1E1,1.6E1,6.1E1,1.8E1,5.1E1,9E0,3E0,5E0,3.9E1,6E0,1E0,5E0,6E0,1E1,6E0,3.2E1,2.9E1,1.1E1,7E0,2.8E1,2.3E1,7E0,2E0,1E0,2E0,4E0,1E0,2.9E1,1E1,4E0,2E0,4E0,1E0,3E0,3E0],"tree_param":{"num_deleted":"0","num_feature":"131","num_nodes":"49","size_leaf_vector":"1"}},{"base_weights":[-5.4246527E-3,-6.556708E-2,6.817508E-1,-2.1784317E-1,1.9279577E-1,8.577434E-1,4.3758307E-2,-8.017922E-2,-4.6344006E-1,4.4187218E-1,1.03887565E-1,1.0936063E-1,5.1823378E-2,-2.0560232E-1,1.8640658E-1,-3.004869E-1,-6.078557E-1,-1.4943187E-2,5.119795E-1,-1.7124286E-2,3.045647E-1,1.000309E-3,-4.7747593E-2,4.963125E-2,6.5240497E-3,-1.8425666E-2,-4.8664548E-2,-6.616331E-2,-1.6011601E-2,9.448438E-2,3.3355948E-2,-1.1878982E-2,1.729063E-2,5.4153927E-2,8.061974E-3],"categories":[],"categories_nodes":[],"categories_segments":[],"categories_sizes":[],"default_left":[0,0,0,0,0,0,0,0,0,0,0,0,0,0,0,0,0,0,0,0,0,0,0,0,0,0,0,0,0,0,0,0,0,0,0],"id":21,"left_children":[1,3,5,7,9,11,-1,13,15,17,19,-1,-1,21,23,25,27,-1,29,31,33,-1,-1,-1,-1,-1,-1,-1,-1,-1,-1,-1,-1,-1,-1],"loss_changes":[9.756874E0,8.579319E0,4.4112873E-1,4.5947886E0,1.7478344E0,2.3403358E-1,0E0,3.0141313E0,9.7046375E-1,9.470558E-1,1.4865587E0,0E0,0E0,3.580439E0,1.0565729E0,4.512639E-1,4.9601936E-1,0E0,1.1522403E0,7.740024E-1,1.1769342E0,0E0,0E0,0E0,0E0,0E0,0E0,0E0,0E0,0E0,0E0,0E0,0E0,0E0,0E0],"parents":[2147483647,0,0,1,1,2,2,3,3,4,4,5,5,7,7,8,8,9,9,10,10,13,13,14,14,15,15,16,16,18,18,19,19,20,20],"right_children":[2,4,6,8,10,12,-1,14,16,18,20,-1,-1,22,24,26,28,-1,30,32,34,-1,-1,-1,-1,-1,-1,-1,-1,-1,-1,-1,-1,-1,-1],"split_conditions":[-2.085474E-1,-1.2809879E-1,4.5E1,-2.3510797E-1,3.5E1,-8.153427E-1,4.3758307E-2,6E-1,1.1111111E-1,2E-1,8E-1,1.0936063E-1,5.1823378E-2,6.20723E-1,6.666667E-1,5.5E1,-2.5882405E-1,-1.4943187E-2,2.5E-1,6.7E-1,8.333333E-1,1.000309E-3,-4.7747593E-2,4.963125E-2,6.5240497E-3,-1.8425666E-2,-4.8664548E-2,-6.616331E-2,-1.6011601E-2,9.448438E-2,3.3355948E-2,-1.1878982E-2,1.729063E-2,5.4153927E-2,8.061974E-3],"split_indices":[95,31,2,95,2,71,0,0,0,0,1,0,0,67,0,2,77,0,0,0,1,0,0,0,0,0,0,0,0,0,0,0,0,0,0],"split_type":[0,0,0,0,0,0,0,0,0,0,0,0,0,0,0,0,0,0,0,0,0,0,0,0,0,0,0,0,0,0,0,0,0,0,0],"sum_hessian":[2.34E2,2.16E2,1.8E1,1.36E2,8E1,9E0,9E0,8.8E1,4.8E1,2E1,6E1,4E0,5E0,6E1,2.8E1,2.4E1,2.4E1,2E0,1.8E1,3.8E1,2.2E1,3.4E1,2.6E1,7E0,2.1E1,1.6E1,8E0,2.1E1,3E0,4E0,1.4E1,2.5E1,1.3E1,1E1,1.2E1],"tree_param":{"num_deleted":"0","num_feature":"131","num_nodes":"35","size_leaf_vector":"1"}},{"base_weights":[-3.8370467E-3,-5.8822967E-2,6.24362E-1,-1.9707973E-1,1.7574492E-1,8.959203E-1,4.6338257E-1,-1.0909864E-1,-5.2097136E-1,4.0306115E-1,9.460745E-2,9.715655E-2,2.5884723E-2,6.379911E-2,2.9548993E-2,-2.0756938E-1,1.6970232E-1,-2.2581209E-1,-5.881516E-1,7.0280634E-2,2.3630933E-1,-1.5273094E-2,2.7681327E-1,9.949441E-2,-2.350376E-2,4.528853E-2,5.901295E-3,-9.782982E-3,-2.9734135E-2,-2.726388E-3,-6.1240714E-2,-1.3946979E-2,3.0484995E-2,-9.275889E-3,1.9039609E-2,4.9230833E-2,7.3177963E-3],"categories":[],"categories_nodes":[],"categories_segments":[],"categories_sizes":[],"default_left":[0,0,0,0,0,0,0,0,0,0,0,0,0,0,0,0,0,0,0,0,0,0,0,0,0,0,0,0,0,0,0,0,0,0,0,0,0],"id":22,"left_children":[1,3,5,7,9,11,13,15,17,19,21,-1,-1,-1,-1,23,25,27,29,-1,31,33,35,-1,-1,-1,-1,-1,-1,-1,-1,-1,-1,-1,-1,-1,-1],"loss_changes":[8.154121E0,7.072075E0,4.1543627E-1,3.8471618E0,1.4558208E0,3.766203E-2,2.2189689E-1,3.027682E0,4.4222403E-1,8.835645E-1,1.2255011E0,0E0,0E0,0E0,0E0,2.909352E0,8.822888E-1,3.4992486E-2,2.9621124E-1,0E0,4.288594E-1,6.3918203E-1,9.7326887E-1,0E0,0E0,0E0,0E0,0E0,0E0,0E0,0E0,0E0,0E0,0E0,0E0,0E0,0E0],"parents":[2147483647,0,0,1,1,2,2,3,3,4,4,5,5,6,6,7,7,8,8,9,9,10,10,15,15,16,16,17,17,18,18,20,20,21,21,22,22],"right_children":[2,4,6,8,10,12,14,16,18,20,22,-1,-1,-1,-1,24,26,28,30,-1,32,34,36,-1,-1,-1,-1,-1,-1,-1,-1,-1,-1,-1,-1,-1,-1],"split_conditions":[-2.085474E-1,-1.2809879E-1,5.7229006E-1,-2.2795105E-1,3.5E1,7.5E1,2.5E1,6E-1,9.090909E-2,5.980176E-1,8E-1,9.715655E-2,2.5884723E-2,6.379911E-2,2.9548993E-2,5.882353E-2,6.666667E-1,4.5E1,6.08815E-1,7.0280634E-2,2E-1,8E-1,8.333333E-1,9.949441E-2,-2.350376E-2,4.528853E-2,5.901295E-3,-9.782982E-3,-2.9734135E-2,-2.726388E-3,-6.1240714E-2,-1.3946979E-2,3.0484995E-2,-9.275889E-3,1.9039609E-2,4.9230833E-2,7.3177963E-3],"split_indices":[95,31,67,95,2,2,2,0,0,67,1,0,0,0,0,0,0,2,67,0,0,0,1,0,0,0,0,0,0,0,0,0,0,0,0,0,0],"split_type":[0,0,0,0,0,0,0,0,0,0,0,0,0,0,0,0,0,0,0,0,0,0,0,0,0,0,0,0,0,0,0,0,0,0,0,0,0],"sum_hessian":[2.34E2,2.16E2,1.8E1,1.36E2,8E1,5E0,1.3E1,1.08E2,2.8E1,2E1,6E1,4E0,1E0,5E0,8E0,8E1,2.8E1,6E0,2.2E1,6E0,1.4E1,3.8E1,2.2E1,1E0,7.9E1,7E0,2.1E1,3E0,3E0,1E0,2.1E1,2E0,1.2E1,2.8E1,1E1,1E1,1.2E1],"tree_param":{"num_deleted":"0","num_feature":"131","num_nodes":"37","size_leaf_vector":"1"}},{"base_weights":[-1.7800919E-3,2.9643926E-1,-1.01176485E-1,-1.1147342E-1,4.508131E-1,-1.6666204E-1,2.8555354E-1,-1.0372075E-2,-2.544222E-1,8.2683516E-1,3.7957773E-1,3.7841033E-2,-3.1988665E-1,3.5025853E-1,5.9888773E-2,7.1509644E-2,-6.737729E-2,-1.35355E-1,-3.6806013E-2,9.725938E-2,3.568786E-2,2.0611405E-1,4.4261426E-1,-9.615605E-2,4.625917E-2,-4.3027827E-1,-5.863572E-2,4.721375E-2,2.6430058E-1,1.0366186E-2,2.1647166E-2,8.016372E-3,1.8446684E-3,-2.0239234E-3,-9.767103E-3,-1.7096996E-3,-1.6064525E-2,-9.0011405E-3,3.654282E-2,7.041107E-2,3.343719E-2,9.451971E-2,-1.3588706E-2,-1.2503496E-2,-4.4950526E-2,4.1325778E-2,-2.4446134E-2,2.7726093E-2,4.7908067E-3,1.0241286E-2,-6.6334247E-3],"categories":[],"categories_nodes":[],"categories_segments":[],"categories_sizes":[],"default_left":[0,0,0,0,0,0,0,0,0,0,0,0,0,0,0,0,0,0,0,0,0,0,0,0,0,0,0,0,0,0,0,0,0,0,0,0,0,0,0,0,0,0,0,0,0,0,0,0,0,0,0],"id":23,"left_children":[1,3,5,7,9,11,13,15,17,19,21,23,25,27,29,31,33,35,-1,-1,-1,37,39,41,-1,43,45,-1,47,-1,49,-1,-1,-1,-1,-1,-1,-1,-1,-1,-1,-1,-1,-1,-1,-1,-1,-1,-1,-1,-1],"loss_changes":[6.995846E0,3.7655458E0,4.530157E0,2.4305043E-1,8.3795357E-1,4.77501E0,3.5866594E-1,5.6162667E-2,4.4895083E-2,6.390333E-2,3.2428408E-1,3.8008938E0,2.483842E0,8.474326E-2,9.473683E-3,8.172989E-4,8.019127E-3,1.2207322E-2,0E0,0E0,0E0,5.990164E-1,5.288E-1,2.2385144E0,0E0,3.0180073E-1,2.468653E0,0E0,2.5980294E-2,0E0,4.2322878E-2,0E0,0E0,0E0,0E0,0E0,0E0,0E0,0E0,0E0,0E0,0E0,0E0,0E0,0E0,0E0,0E0,0E0,0E0,0E0,0E0],"parents":[2147483647,0,0,1,1,2,2,3,3,4,4,5,5,6,6,7,7,8,8,9,9,10,10,11,11,12,12,13,13,14,14,15,15,16,16,17,17,21,21,22,22,23,23,25,25,26,26,28,28,30,30],"right_children":[2,4,6,8,10,12,14,16,18,20,22,24,26,28,30,32,34,36,-1,-1,-1,38,40,42,-1,44,46,-1,48,-1,50,-1,-1,-1,-1,-1,-1,-1,-1,-1,-1,-1,-1,-1,-1,-1,-1,-1,-1,-1,-1],"split_conditions":[2.126353E-2,-6.072628E-1,7.1E-1,2.5E-1,5.7229006E-1,8.7716424E-1,7E1,4E1,3.3E-1,6E1,7.5E-1,7.993189E-1,6E-1,2.5E-1,7.5E-1,3E1,7E1,6E1,-3.6806013E-2,9.725938E-2,3.568786E-2,6.252673E-1,3.5E1,5.882353E-2,4.625917E-2,-1.964434E-2,6.666667E-1,4.721375E-2,8E-1,1.0366186E-2,2.5E-1,8.016372E-3,1.8446684E-3,-2.0239234E-3,-9.767103E-3,-1.7096996E-3,-1.6064525E-2,-9.0011405E-3,3.654282E-2,7.041107E-2,3.343719E-2,9.451971E-2,-1.3588706E-2,-1.2503496E-2,-4.4950526E-2,4.1325778E-2,-2.4446134E-2,2.7726093E-2,4.7908067E-3,1.0241286E-2,-6.6334247E-3],"split_indices":[83,4,0,0,67,76,2,2,0,2,1,3,0,1,0,2,2,2,0,0,0,3,2,0,0,16,0,0,0,0,1,0,0,0,0,0,0,0,0,0,0,0,0,0,0,0,0,0,0,0,0],"split_type":[0,0,0,0,0,0,0,0,0,0,0,0,0,0,0,0,0,0,0,0,0,0,0,0,0,0,0,0,0,0,0,0,0,0,0,0,0,0,0,0,0,0,0,0,0,0,0,0,0,0,0],"sum_hessian":[2.34E2,5.8E1,1.76E2,1.6E1,4.2E1,1.51E2,2.5E1,1E1,6E0,5E0,3.7E1,6.5E1,8.6E1,1.9E1,6E0,4E0,6E0,4E0,2E0,3E0,2E0,1.1E1,2.6E1,5E1,1.5E1,6E1,2.6E1,6E0,1.3E1,2E0,4E0,3E0,1E0,3E0,3E0,1E0,3E0,4E0,7E0,6E0,2E1,1E0,4.9E1,4E0,5.6E1,7E0,1.9E1,1.2E1,1E0,2E0,2E0],"tree_param":{"num_deleted":"0","num_feature":"131","num_nodes":"51","size_leaf_vector":"1"}},{"base_weights":[4.9639762E-5,-4.6777032E-2,5.348569E-1,-1.6436145E-1,1.5267782E-1,6.94702E-1,3.2152605E-1,-6.1893918E-2,-3.5925898E-1,2.6785263E-1,2.1775369E-2,8.889122E-2,4.170766E-1,3.7158012E-2,1.5354991E-2,-2.5000978E-1,7.163008E-2,-2.1430135E-1,-5.012016E-1,5.063729E-1,1.4761475E-1,-6.934281E-2,1.721873E-1,4.581255E-2,1.0591603E-2,1.4069478E-2,-4.1439664E-2,-1.5044817E-3,4.545041E-2,-1.1042132E-2,-3.8670793E-2,-3.8085468E-2,-7.218727E-2,5.478235E-2,-1.6242027E-3,3.7674062E-2,3.1477928E-3,6.8695485E-3,-1.2684077E-2,6.670397E-3,3.6981314E-2],"categories":[],"categories_nodes":[],"categories_segments":[],"categories_sizes":[],"default_left":[0,0,0,0,0,0,0,0,0,0,0,0,0,0,0,0,0,0,0,0,0,0,0,0,0,0,0,0,0,0,0,0,0,0,0,0,0,0,0,0,0],"id":24,"left_children":[1,3,5,7,9,11,13,15,17,19,21,-1,23,-1,-1,25,27,29,31,33,35,37,39,-1,-1,-1,-1,-1,-1,-1,-1,-1,-1,-1,-1,-1,-1,-1,-1,-1,-1],"loss_changes":[5.9101815E0,5.114348E0,4.2453337E-1,2.7137458E0,1.2153772E0,1.6843224E-1,2.7022839E-2,2.3036444E0,8.596482E-1,1.1584566E0,5.464451E-1,0E0,2.8113961E-2,0E0,0E0,2.4989176E0,1.7988584E0,4.050392E-1,3.3588457E-1,3.1217504E-1,7.864394E-1,2.0713645E-1,2.8802553E-1,0E0,0E0,0E0,0E0,0E0,0E0,0E0,0E0,0E0,0E0,0E0,0E0,0E0,0E0,0E0,0E0,0E0,0E0],"parents":[2147483647,0,0,1,1,2,2,3,3,4,4,5,5,6,6,7,7,8,8,9,9,10,10,12,12,15,15,16,16,17,17,18,18,19,19,20,20,21,21,22,22],"right_children":[2,4,6,8,10,12,14,16,18,20,22,-1,24,-1,-1,26,28,30,32,34,36,38,40,-1,-1,-1,-1,-1,-1,-1,-1,-1,-1,-1,-1,-1,-1,-1,-1,-1,-1],"split_conditions":[-2.085474E-1,-1.2809879E-1,4.5E1,-2.3114507E-1,6E1,-8.153427E-1,6.132924E-1,2.2E1,1.1111111E-1,5.980176E-1,8E-1,8.889122E-2,2.5E1,3.7158012E-2,1.5354991E-2,3.397958E-1,-1.5396721E-2,5.5E1,4.5E1,5.5E1,2.5E-1,6.5E1,6.2933975E-1,4.581255E-2,1.0591603E-2,1.4069478E-2,-4.1439664E-2,-1.5044817E-3,4.545041E-2,-1.1042132E-2,-3.8670793E-2,-3.8085468E-2,-7.218727E-2,5.478235E-2,-1.6242027E-3,3.7674062E-2,3.1477928E-3,6.8695485E-3,-1.2684077E-2,6.670397E-3,3.6981314E-2],"split_indices":[95,31,2,95,2,71,67,2,0,67,1,0,2,0,0,28,80,2,2,2,0,2,3,0,0,0,0,0,0,0,0,0,0,0,0,0,0,0,0,0,0],"split_type":[0,0,0,0,0,0,0,0,0,0,0,0,0,0,0,0,0,0,0,0,0,0,0,0,0,0,0,0,0,0,0,0,0,0,0,0,0,0,0,0,0],"sum_hessian":[2.34E2,2.16E2,1.8E1,1.36E2,8E1,9E0,9E0,9E1,4.6E1,4.2E1,3.8E1,4E0,5E0,6E0,3E0,3.7E1,5.3E1,2.4E1,2.2E1,1.3E1,2.9E1,2.4E1,1.4E1,4E0,1E0,1.1E1,2.6E1,4.4E1,9E0,1.6E1,8E0,1.6E1,6E0,1.2E1,1E0,9E0,2E1,7E0,1.7E1,1E1,4E0],"tree_param":{"num_deleted":"0","num_feature":"131","num_nodes":"41","size_leaf_vector":"1"}},{"base_weights":[8.3710486E-4,-8.805374E-2,2.3971817E-1,-1.5002379E-1,2.6570207E-1,-9.9079944E-2,3.5471505E-1,1.007264E-2,-2.6369768E-1,3.7245255E-2,1.3030137E-1,-4.719429E-2,-3.2548156E-2,-4.7057122E-2,3.822865E-1,-1.1714325E-1,3.831398E-2,-3.5829154E-1,-4.372252E-2,1.6182527E-1,1.891625E-2,3.0759692E-2,-1.1924899E-2,7.1810025E-1,3.2521102E-1,-2.2617213E-3,-6.540611E-2,-2.975457E-2,-4.9444012E-2,3.7841428E-2,-2.1039112E-2,1.8017352E-2,5.8954875E-3,5.0387383E-3,-8.369923E-4,6.1304667E-3,-1.5111447E-3,8.459141E-2,3.0831495E-2,3.7166934E-2,1.6049499E-2],"categories":[],"categories_nodes":[],"categories_segments":[],"categories_sizes":[],"default_left":[0,0,0,0,0,0,0,0,0,0,0,0,0,0,0,0,0,0,0,0,0,0,0,0,0,0,0,0,0,0,0,0,0,0,0,0,0,0,0,0,0],"id":25,"left_children":[1,3,5,7,9,11,13,15,17,-1,19,21,-1,-1,23,25,-1,27,29,31,33,35,-1,37,39,-1,-1,-1,-1,-1,-1,-1,-1,-1,-1,-1,-1,-1,-1,-1,-1],"loss_changes":[5.011178E0,3.810491E0,2.5286312E0,2.6778772E0,3.2727528E-1,1.8433806E-1,1.2721009E0,2.9874065E0,1.7738485E0,0E0,4.2585686E-2,8.792232E-2,0E0,0E0,6.6730165E-1,2.3705845E0,0E0,3.4910965E-1,1.9792526E0,8.2527995E-3,3.8566454E-3,1.2135462E-2,0E0,5.344963E-2,2.6175117E-1,0E0,0E0,0E0,0E0,0E0,0E0,0E0,0E0,0E0,0E0,0E0,0E0,0E0,0E0,0E0,0E0],"parents":[2147483647,0,0,1,1,2,2,3,3,4,4,5,5,6,6,7,7,8,8,10,10,11,11,14,14,15,15,17,17,18,18,19,19,20,20,21,21,23,23,24,24],"right_children":[2,4,6,8,10,12,14,16,18,-1,20,22,-1,-1,24,26,-1,28,30,32,34,36,-1,38,40,-1,-1,-1,-1,-1,-1,-1,-1,-1,-1,-1,-1,-1,-1,-1,-1],"split_conditions":[-6.1187804E-1,7.1E-1,-6.072628E-1,6.20723E-1,5E1,3.3E-1,6.363636E-1,7.993189E-1,6E-1,3.7245255E-2,8E1,6E1,-3.2548156E-2,-4.7057122E-2,5.7229006E-1,3.3E-1,3.831398E-2,6E1,6.666667E-1,2.2E0,7.5E-1,4E1,-1.1924899E-2,6E1,6.5E1,-2.2617213E-3,-6.540611E-2,-2.975457E-2,-4.9444012E-2,3.7841428E-2,-2.1039112E-2,1.8017352E-2,5.8954875E-3,5.0387383E-3,-8.369923E-4,6.1304667E-3,-1.5111447E-3,8.459141E-2,3.0831495E-2,3.7166934E-2,1.6049499E-2],"split_indices":[121,0,4,67,2,0,1,3,0,0,2,2,0,0,67,0,0,2,0,0,0,2,0,2,2,0,0,0,0,0,0,0,0,0,0,0,0,0,0,0,0],"split_type":[0,0,0,0,0,0,0,0,0,0,0,0,0,0,0,0,0,0,0,0,0,0,0,0,0,0,0,0,0,0,0,0,0,0,0,0,0,0,0,0,0],"sum_hessian":[2.34E2,1.71E2,6.3E1,1.46E2,2.5E1,1.6E1,4.7E1,6.1E1,8.5E1,1.3E1,1.2E1,1.4E1,2E0,1E0,4.6E1,4.6E1,1.5E1,5.9E1,2.6E1,9E0,3E0,7E0,7E0,5E0,4.1E1,4E1,6E0,4.3E1,1.6E1,7E0,1.9E1,7E0,2E0,1E0,2E0,4E0,3E0,3E0,2E0,3.1E1,1E1],"tree_param":{"num_deleted":"0","num_feature":"131","num_nodes":"41","size_leaf_vector":"1"}},{"base_weights":[9.888979E-4,-3.86974E-2,4.5419613E-1,-1.389803E-1,1.3139464E-1,5.9682643E-1,2.6614618E-1,-1.7642647E-1,2.6578608E-1,3.1679532E-1,6.541417E-2,7.69096E-2,3.5379744E-1,3.627832E-2,1.7290415E-2,8.7634325E-2,-1.9185936E-1,2.9192267E-2,9.006882E-3,-1.4472072E-2,3.7299284E-1,-1.3685569E-2,1.9669572E-1,3.9174214E-2,8.203697E-3,-1.4252171E-2,-4.2941153E-2,7.552768E-2,2.2069868E-2,-7.299155E-3,1.4391071E-2,4.0605616E-2,4.4141553E-4],"categories":[],"categories_nodes":[],"categories_segments":[],"categories_sizes":[],"default_left":[0,0,0,0,0,0,0,0,0,0,0,0,0,0,0,0,0,0,0,0,0,0,0,0,0,0,0,0,0,0,0,0,0],"id":26,"left_children":[1,3,5,7,9,11,13,15,17,19,21,-1,23,-1,-1,-1,25,-1,-1,-1,27,29,31,-1,-1,-1,-1,-1,-1,-1,-1,-1,-1],"loss_changes":[4.2443132E0,3.7197008E0,3.507681E-1,2.1233935E0,9.701358E-1,1.4656067E-1,2.7379632E-2,2.215294E0,2.8818607E-2,5.9863687E-1,6.361364E-1,0E0,2.9733837E-2,0E0,0E0,0E0,1.4038329E0,0E0,0E0,0E0,9.3948436E-1,3.7501398E-1,9.24099E-1,0E0,0E0,0E0,0E0,0E0,0E0,0E0,0E0,0E0,0E0],"parents":[2147483647,0,0,1,1,2,2,3,3,4,4,5,5,6,6,7,7,8,8,9,9,10,10,12,12,16,16,20,20,21,21,22,22],"right_children":[2,4,6,8,10,12,14,16,18,20,22,-1,24,-1,-1,-1,26,-1,-1,-1,28,30,32,-1,-1,-1,-1,-1,-1,-1,-1,-1,-1],"split_conditions":[-2.085474E-1,-1.2809879E-1,4.5E1,7.1E-1,3.5E1,-8.153427E-1,5.7229006E-1,5.882353E-2,7E1,2E-1,8E-1,7.69096E-2,2.5E1,3.627832E-2,1.7290415E-2,8.7634325E-2,1.9447762E-1,2.9192267E-2,9.006882E-3,-1.4472072E-2,2.5E-1,8E-1,8.333333E-1,3.9174214E-2,8.203697E-3,-1.4252171E-2,-4.2941153E-2,7.552768E-2,2.2069868E-2,-7.299155E-3,1.4391071E-2,4.0605616E-2,4.4141553E-4],"split_indices":[95,31,2,0,2,71,67,0,2,0,1,0,2,0,0,0,69,0,0,0,0,0,1,0,0,0,0,0,0,0,0,0,0],"split_type":[0,0,0,0,0,0,0,0,0,0,0,0,0,0,0,0,0,0,0,0,0,0,0,0,0,0,0,0,0,0,0,0,0],"sum_hessian":[2.34E2,2.16E2,1.8E1,1.36E2,8E1,9E0,9E0,1.25E2,1.1E1,2E1,6E1,4E0,5E0,3E0,6E0,1E0,1.24E2,9E0,2E0,2E0,1.8E1,3.8E1,2.2E1,4E0,1E0,1.04E2,2E1,4E0,1.4E1,2.8E1,1E1,1E1,1.2E1],"tree_param":{"num_deleted":"0","num_feature":"131","num_nodes":"33","size_leaf_vector":"1"}},{"base_weights":[2.4974681E-3,2.1676709E-1,-6.893985E-2,-8.1423566E-2,3.2961532E-1,-1.18666284E-1,2.2442009E-1,4.3637534E-3,-2.0460026E-1,6.217511E-1,2.7481452E-1,2.6435755E-2,-2.2737971E-1,3.1645918E-1,1.08037986E-1,6.7801857E-3,-4.157257E-2,-1.0414286E-1,-3.038292E-2,7.349455E-2,2.6357492E-2,3.210217E-1,1.3221312E-1,-7.747221E-2,3.559902E-2,-3.1240827E-1,-2.685673E-2,2.2980174E-2,4.2648222E-2,1.3482928E-1,1.4050245E-2,-3.1672718E-4,-6.958473E-3,-1.1024952E-3,-1.24666095E-2,1.7525887E-2,4.1939016E-2,1.5053296E-2,-2.549267E-3,8.325262E-2,-1.1232271E-2,-4.2576026E-3,-3.305969E-2,3.577738E-2,-1.793661E-2,1.9034578E-2,8.384425E-3,4.3364526E-3,-1.0176023E-3],"categories":[],"categories_nodes":[],"categories_segments":[],"categories_sizes":[],"default_left":[0,0,0,0,0,0,0,0,0,0,0,0,0,0,0,0,0,0,0,0,0,0,0,0,0,0,0,0,0,0,0,0,0,0,0,0,0,0,0,0,0,0,0,0,0,0,0,0,0],"id":27,"left_children":[1,3,5,7,9,11,13,15,17,19,21,23,25,27,29,-1,31,33,-1,-1,-1,35,37,39,-1,41,43,-1,-1,45,47,-1,-1,-1,-1,-1,-1,-1,-1,-1,-1,-1,-1,-1,-1,-1,-1,-1,-1],"loss_changes":[3.6120527E0,2.0122056E0,2.608662E0,1.805318E-1,5.1753235E-1,2.4037411E0,2.4431467E-1,3.4873944E-2,3.8136333E-2,4.954815E-2,2.0794678E-1,2.2876391E0,1.4749746E0,3.5474062E-2,3.0840322E-2,0E0,7.310313E-3,8.180965E-3,0E0,0E0,0E0,3.2797503E-1,3.561808E-2,1.7109201E0,0E0,2.8530598E-1,1.6479859E0,0E0,0E0,1.2345701E-2,3.2819808E-3,0E0,0E0,0E0,0E0,0E0,0E0,0E0,0E0,0E0,0E0,0E0,0E0,0E0,0E0,0E0,0E0,0E0,0E0],"parents":[2147483647,0,0,1,1,2,2,3,3,4,4,5,5,6,6,7,7,8,8,9,9,10,10,11,11,12,12,13,13,14,14,16,16,17,17,21,21,22,22,23,23,25,25,26,26,29,29,30,30],"right_children":[2,4,6,8,10,12,14,16,18,20,22,24,26,28,30,-1,32,34,-1,-1,-1,36,38,40,-1,42,44,-1,-1,46,48,-1,-1,-1,-1,-1,-1,-1,-1,-1,-1,-1,-1,-1,-1,-1,-1,-1,-1],"split_conditions":[2.126353E-2,-6.072628E-1,7.1E-1,2.5E-1,5.7229006E-1,8.7716424E-1,5E1,4E1,3.3E-1,6E1,6.5E1,7.993189E-1,6E-1,8E-1,8E1,6.7801857E-3,7E1,6E1,-3.038292E-2,7.349455E-2,2.6357492E-2,-4.653507E-1,2.3333333E0,5.882353E-2,3.559902E-2,-1.964434E-2,6.666667E-1,2.2980174E-2,4.2648222E-2,2.5E-1,7.5E-1,-3.1672718E-4,-6.958473E-3,-1.1024952E-3,-1.24666095E-2,1.7525887E-2,4.1939016E-2,1.5053296E-2,-2.549267E-3,8.325262E-2,-1.1232271E-2,-4.2576026E-3,-3.305969E-2,3.577738E-2,-1.793661E-2,1.9034578E-2,8.384425E-3,4.3364526E-3,-1.0176023E-3],"split_indices":[83,4,0,0,67,76,2,2,0,2,2,3,0,0,2,0,2,2,0,0,0,4,0,0,0,16,0,0,0,1,0,0,0,0,0,0,0,0,0,0,0,0,0,0,0,0,0,0,0],"split_type":[0,0,0,0,0,0,0,0,0,0,0,0,0,0,0,0,0,0,0,0,0,0,0,0,0,0,0,0,0,0,0,0,0,0,0,0,0,0,0,0,0,0,0,0,0,0,0,0,0],"sum_hessian":[2.34E2,5.8E1,1.76E2,1.6E1,4.2E1,1.51E2,2.5E1,1E1,6E0,5E0,3.7E1,6.5E1,8.6E1,1.3E1,1.2E1,4E0,6E0,4E0,2E0,3E0,2E0,2.7E1,1E1,5E1,1.5E1,6E1,2.6E1,9E0,4E0,9E0,3E0,3E0,3E0,1E0,3E0,1.2E1,1.5E1,9E0,1E0,1E0,4.9E1,4E0,5.6E1,7E0,1.9E1,3E0,6E0,1E0,2E0],"tree_param":{"num_deleted":"0","num_feature":"131","num_nodes":"49","size_leaf_vector":"1"}},{"base_weights":[3.5748852E-3,-3.0873915E-2,3.968283E-1,-1.1616353E-1,1.1376252E-1,5.8829606E-1,2.6320502E-1,7.908998E-2,-1.2864855E-1,2.3794307E-1,3.604959E-2,7.272537E-2,3.0226445E-2,4.1103937E-2,1.5182982E-1,-1.6155897E-1,2.2488904E-1,-1.865132E-2,2.900817E-1,-3.5154924E-2,1.4817433E-1,1.7120961E-2,5.6000394E-3,-2.1687582E-2,1.3171965E-3,2.3784326E-2,4.1196346E-3,6.6633336E-2,1.5717974E-2,-9.189974E-3,9.887362E-3,3.0103622E-2,2.1180073E-3],"categories":[],"categories_nodes":[],"categories_segments":[],"categories_sizes":[],"default_left":[0,0,0,0,0,0,0,0,0,0,0,0,0,0,0,0,0,0,0,0,0,0,0,0,0,0,0,0,0,0,0,0,0],"id":28,"left_children":[1,3,5,7,9,11,13,-1,15,17,19,-1,-1,-1,21,23,25,-1,27,29,31,-1,-1,-1,-1,-1,-1,-1,-1,-1,-1,-1,-1],"loss_changes":[3.195822E0,2.690124E0,3.3126402E-1,1.6532326E0,7.731074E-1,5.840087E-2,1.5163797E-1,0E0,1.6187027E0,7.4015176E-1,4.1238225E-1,0E0,0E0,0E0,7.1265697E-3,1.2110524E0,1.8756866E-2,0E0,1.2953947E0,2.5246E-1,3.8187563E-1,0E0,0E0,0E0,0E0,0E0,0E0,0E0,0E0,0E0,0E0,0E0,0E0],"parents":[2147483647,0,0,1,1,2,2,3,3,4,4,5,5,6,6,8,8,9,9,10,10,14,14,15,15,16,16,18,18,19,19,20,20],"right_children":[2,4,6,8,10,12,14,-1,16,18,20,-1,-1,-1,22,24,26,-1,28,30,32,-1,-1,-1,-1,-1,-1,-1,-1,-1,-1,-1,-1],"split_conditions":[-2.085474E-1,-1.2809879E-1,2.5E1,5.882353E-2,4.5E1,1.6666667E-1,5.7229006E-1,7.908998E-2,7.1E-1,2E-1,8E-1,7.272537E-2,3.0226445E-2,4.1103937E-2,7.5E1,7.993189E-1,8E1,-1.865132E-2,2.5E-1,8E-1,8.333333E-1,1.7120961E-2,5.6000394E-3,-2.1687582E-2,1.3171965E-3,2.3784326E-2,4.1196346E-3,6.6633336E-2,1.5717974E-2,-9.189974E-3,9.887362E-3,3.0103622E-2,2.1180073E-3],"split_indices":[95,31,2,0,2,0,67,0,0,0,1,0,0,0,2,3,2,0,0,0,1,0,0,0,0,0,0,0,0,0,0,0,0],"split_type":[0,0,0,0,0,0,0,0,0,0,0,0,0,0,0,0,0,0,0,0,0,0,0,0,0,0,0,0,0,0,0,0,0],"sum_hessian":[2.34E2,2.16E2,1.8E1,1.36E2,8E1,6E0,1.2E1,1E0,1.35E2,3E1,5E1,3E0,3E0,4E0,8E0,1.24E2,1.1E1,3E0,2.7E1,3.1E1,1.9E1,6E0,2E0,9.4E1,3E1,1E1,1E0,6E0,2.1E1,2.2E1,9E0,8E0,1.1E1],"tree_param":{"num_deleted":"0","num_feature":"131","num_nodes":"33","size_leaf_vector":"1"}},{"base_weights":[4.706844E-3,3.7515648E-2,-3.4986356E-1,9.436877E-2,-2.2292979E-1,-4.342311E-1,-9.914684E-3,4.3158048E-1,5.8399834E-2,-1.1248873E-1,-4.351589E-1,-1.865698E-1,-5.2984357E-1,-7.404407E-3,5.7519595E-3,8.387097E-2,2.4179386E-1,1.2601553E-1,-6.836619E-2,-3.029338E-2,-2.2929166E-1,-1.5776668E-2,-5.4091472E-2,-2.7642801E-2,-4.5688948E-4,-5.8464278E-2,-1.888314E-2,3.781559E-2,1.3917118E-2,2.8357131E-2,5.711153E-3,9.6238934E-4,-7.328859E-2,6.34068E-3,-6.400165E-3,-1.5187882E-2,-3.850996E-2],"categories":[],"categories_nodes":[],"categories_segments":[],"categories_sizes":[],"default_left":[0,0,0,0,0,0,0,0,0,0,0,0,0,0,0,0,0,0,0,0,0,0,0,0,0,0,0,0,0,0,0,0,0,0,0,0,0],"id":29,"left_children":[1,3,5,7,9,11,13,15,17,19,21,23,25,-1,-1,-1,27,29,31,33,35,-1,-1,-1,-1,-1,-1,-1,-1,-1,-1,-1,-1,-1,-1,-1,-1],"loss_changes":[2.7468872E0,3.2193792E0,5.6930804E-1,2.133784E0,8.6516273E-1,2.8001928E-1,2.588158E-2,1.1107554E0,1.3971777E0,2.5227174E-1,2.9602766E-1,9.6862674E-2,9.5160246E-2,0E0,0E0,0E0,1.2929147E-1,1.1345645E0,2.9611325E0,5.7752147E-2,7.418841E-2,0E0,0E0,0E0,0E0,0E0,0E0,0E0,0E0,0E0,0E0,0E0,0E0,0E0,0E0,0E0,0E0],"parents":[2147483647,0,0,1,1,2,2,3,3,4,4,5,5,6,6,7,7,8,8,9,9,10,10,11,11,12,12,16,16,17,17,18,18,19,19,20,20],"right_children":[2,4,6,8,10,12,14,16,18,20,22,24,26,-1,-1,-1,28,30,32,34,36,-1,-1,-1,-1,-1,-1,-1,-1,-1,-1,-1,-1,-1,-1,-1,-1],"split_conditions":[-2.1633692E-1,9.756351E-2,6E1,1.6666667E-1,5.5E1,8.9656967E-1,8E1,3E1,3.397958E-1,1.1111111E-1,9.090909E-2,6.252673E-1,4E1,-7.404407E-3,5.7519595E-3,8.387097E-2,5.7229006E-1,3.5E1,-3.2140163E-1,2.2E1,2.5E-1,-1.5776668E-2,-5.4091472E-2,-2.7642801E-2,-4.5688948E-4,-5.8464278E-2,-1.888314E-2,3.781559E-2,1.3917118E-2,2.8357131E-2,5.711153E-3,9.6238934E-4,-7.328859E-2,6.34068E-3,-6.400165E-3,-1.5187882E-2,-3.850996E-2],"split_indices":[112,64,2,0,2,82,2,2,28,0,0,3,2,0,0,0,67,2,88,2,0,0,0,0,0,0,0,0,0,0,0,0,0,0,0,0,0],"split_type":[0,0,0,0,0,0,0,0,0,0,0,0,0,0,0,0,0,0,0,0,0,0,0,0,0,0,0,0,0,0,0,0,0,0,0,0,0],"sum_hessian":[2.34E2,2.15E2,1.9E1,1.77E2,3.8E1,1.5E1,4E0,1.6E1,1.61E2,2.6E1,1.2E1,5E0,1E1,2E0,2E0,4E0,1.2E1,1.05E2,5.6E1,1.6E1,1E1,4E0,8E0,3E0,2E0,8E0,2E0,4E0,8E0,3.1E1,7.4E1,5.1E1,5E0,4E0,1.2E1,8E0,2E0],"tree_param":{"num_deleted":"0","num_feature":"131","num_nodes":"37","size_leaf_vector":"1"}},{"base_weights":[3.66861E-3,-2.5683474E-2,3.387072E-1,-3.2023215E-1,4.198634E-3,4.607977E-1,1.8274602E-1,-3.9739844E-1,-9.253693E-3,5.4873697E-2,-2.0380671E-1,5.8652956E-2,2.7922153E-1,2.1566978E-2,7.944298E-2,-1.725961E-1,-4.8389074E-1,-6.910785E-2,5.368503E-3,-4.1906202E-1,6.9712184E-2,-6.710185E-2,-3.441749E-1,3.1360455E-2,5.365324E-3,9.696229E-3,1.3442517E-3,-2.5569588E-2,-4.2643546E-4,-5.326745E-2,-1.7624259E-2,-8.191431E-3,-2.174747E-3,-1.1888385E-2,-4.6438556E-2,1.2760954E-2,-5.9320997E-3,-1.7413682E-3,-3.5942633E-2,-2.0384787E-2,-5.5561442E-2],"categories":[],"categories_nodes":[],"categories_segments":[],"categories_sizes":[],"default_left":[0,0,0,0,0,0,0,0,0,0,0,0,0,0,0,0,0,0,0,0,0,0,0,0,0,0,0,0,0,0,0,0,0,0,0,0,0,0,0,0,0],"id":30,"left_children":[1,3,5,7,9,11,13,15,17,19,21,-1,23,-1,25,27,29,31,-1,33,35,37,39,-1,-1,-1,-1,-1,-1,-1,-1,-1,-1,-1,-1,-1,-1,-1,-1,-1,-1],"loss_changes":[2.319708E0,1.911321E0,2.7757716E-1,4.7626376E-1,2.098239E0,6.452727E-2,1.68778E-2,2.2758102E-1,2.2545777E-2,1.1544123E0,7.252767E-1,0E0,2.9708385E-2,0E0,3.3217147E-3,8.283962E-2,7.121062E-2,3.8126484E-5,0E0,1.28178E-2,1.1729959E0,2.987675E-1,4.5048213E-1,0E0,0E0,0E0,0E0,0E0,0E0,0E0,0E0,0E0,0E0,0E0,0E0,0E0,0E0,0E0,0E0,0E0,0E0],"parents":[2147483647,0,0,1,1,2,2,3,3,4,4,5,5,6,6,7,7,8,8,9,9,10,10,12,12,14,14,15,15,16,16,17,17,19,19,20,20,21,21,22,22],"right_children":[2,4,6,8,10,12,14,16,18,20,22,-1,24,-1,26,28,30,32,-1,34,36,38,40,-1,-1,-1,-1,-1,-1,-1,-1,-1,-1,-1,-1,-1,-1,-1,-1,-1,-1],"split_conditions":[-2.085474E-1,-6.104803E-1,4.5E1,6E1,9.756351E-2,-8.153427E-1,6.132924E-1,8.9656967E-1,8E1,-3.8704666E-1,4.5E1,5.8652956E-2,2.5E1,2.1566978E-2,7.5E1,6.252673E-1,4E1,7E1,5.368503E-3,9.7779006E-1,6.5E1,2.5E-1,1.1111111E-1,3.1360455E-2,5.365324E-3,9.696229E-3,1.3442517E-3,-2.5569588E-2,-4.2643546E-4,-5.326745E-2,-1.7624259E-2,-8.191431E-3,-2.174747E-3,-1.1888385E-2,-4.6438556E-2,1.2760954E-2,-5.9320997E-3,-1.7413682E-3,-3.5942633E-2,-2.0384787E-2,-5.5561442E-2],"split_indices":[95,68,2,2,64,71,67,82,2,38,2,0,2,0,2,3,2,2,0,82,2,0,0,0,0,0,0,0,0,0,0,0,0,0,0,0,0,0,0,0,0],"split_type":[0,0,0,0,0,0,0,0,0,0,0,0,0,0,0,0,0,0,0,0,0,0,0,0,0,0,0,0,0,0,0,0,0,0,0,0,0,0,0,0,0],"sum_hessian":[2.34E2,2.16E2,1.8E1,1.9E1,1.97E2,9E0,9E0,1.5E1,4E0,1.59E2,3.8E1,4E0,5E0,6E0,3E0,5E0,1E1,2E0,2E0,4E0,1.55E2,2E1,1.8E1,4E0,1E0,2E0,1E0,3E0,2E0,8E0,2E0,1E0,1E0,1E0,3E0,1.07E2,4.8E1,1.8E1,2E0,1.2E1,6E0],"tree_param":{"num_deleted":"0","num_feature":"131","num_nodes":"41","size_leaf_vector":"1"}},{"base_weights":[2.7101121E-3,1.6499029E-1,-5.0182924E-2,-8.263731E-2,2.6129216E-1,-8.8277474E-2,1.7591895E-1,-4.077406E-2,-2.6440779E-2,4.249367E-1,2.1028943E-1,2.3209991E-2,-1.7312095E-1,2.709918E-1,9.956142E-2,1.2194991E-2,-8.864636E-3,4.499277E-2,1.1250448E-2,9.5598586E-2,2.6850268E-1,-6.514521E-2,3.0891377E-1,-2.425169E-1,-9.92562E-3,1.2097216E-2,3.1212766E-2,1.624062E-1,5.6231413E-2,3.2958796E-3,-1.680851E-3,2.1254985E-2,-4.064679E-4,3.3250988E-2,8.384303E-3,5.1719947E-3,-3.8604494E-2,4.5158196E-2,2.5627676E-2,-1.9306496E-2,-3.591534E-2,3.404471E-2,-1.4957841E-2,1.8239317E-2,3.1235695E-3,1.1707481E-2,-1.3983886E-3],"categories":[],"categories_nodes":[],"categories_segments":[],"categories_sizes":[],"default_left":[0,0,0,0,0,0,0,0,0,0,0,0,0,0,0,0,0,0,0,0,0,0,0,0,0,0,0,0,0,0,0,0,0,0,0,0,0,0,0,0,0,0,0,0,0,0,0],"id":31,"left_children":[1,3,5,7,9,11,13,15,-1,17,19,21,23,25,27,29,-1,-1,-1,31,33,35,37,39,41,-1,-1,43,45,-1,-1,-1,-1,-1,-1,-1,-1,-1,-1,-1,-1,-1,-1,-1,-1,-1,-1],"loss_changes":[2.0254004E0,1.4047188E0,1.5486879E0,1.18580565E-1,2.6118565E-1,1.4512429E0,1.6176736E-1,3.911729E-2,0E0,1.9653082E-2,2.0133352E-1,1.711433E0,9.8287606E-1,3.0124307E-2,3.4436718E-2,5.3717718E-3,0E0,0E0,0E0,1.5238862E-1,2.3215127E-1,1.9700698E0,4.4242144E-3,2.8250217E-1,1.3720477E0,0E0,0E0,1.0033026E-2,4.8630666E-2,0E0,0E0,0E0,0E0,0E0,0E0,0E0,0E0,0E0,0E0,0E0,0E0,0E0,0E0,0E0,0E0,0E0,0E0],"parents":[2147483647,0,0,1,1,2,2,3,3,4,4,5,5,6,6,7,7,9,9,10,10,11,11,12,12,13,13,14,14,15,15,19,19,20,20,21,21,22,22,23,23,24,24,27,27,28,28],"right_children":[2,4,6,8,10,12,14,16,-1,18,20,22,24,26,28,30,-1,-1,-1,32,34,36,38,40,42,-1,-1,44,46,-1,-1,-1,-1,-1,-1,-1,-1,-1,-1,-1,-1,-1,-1,-1,-1,-1,-1],"split_conditions":[6.132924E-1,-6.072628E-1,7.1E-1,3.3E-1,5.7583684E-1,1.8738726E-1,4E1,6E1,-2.6440779E-2,7.5E1,-4.653507E-1,7.993189E-1,6E-1,7.1428573E-1,2.5E-1,4E1,-8.864636E-3,4.499277E-2,1.1250448E-2,1.6666667E-1,6.5E1,2.5E-1,2E1,6E1,6.666667E-1,1.2097216E-2,3.1212766E-2,7.5E1,7.5E-1,3.2958796E-3,-1.680851E-3,2.1254985E-2,-4.064679E-4,3.3250988E-2,8.384303E-3,5.1719947E-3,-3.8604494E-2,4.5158196E-2,2.5627676E-2,-1.9306496E-2,-3.591534E-2,3.404471E-2,-1.4957841E-2,1.8239317E-2,3.1235695E-3,1.1707481E-2,-1.3983886E-3],"split_indices":[67,4,0,0,67,72,2,2,0,2,4,3,0,0,1,2,0,0,0,0,2,0,2,2,0,0,0,2,0,0,0,0,0,0,0,0,0,0,0,0,0,0,0,0,0,0,0],"split_type":[0,0,0,0,0,0,0,0,0,0,0,0,0,0,0,0,0,0,0,0,0,0,0,0,0,0,0,0,0,0,0,0,0,0,0,0,0,0,0,0,0,0,0,0,0,0,0],"sum_hessian":[2.34E2,5.7E1,1.77E2,1.6E1,4.1E1,1.52E2,2.5E1,1.4E1,2E0,8E0,3.3E1,6.6E1,8.6E1,1E1,1.5E1,7E0,7E0,7E0,1E0,1.2E1,2.1E1,5.1E1,1.5E1,6E1,2.6E1,3E0,7E0,5E0,1E1,4E0,3E0,5E0,7E0,1.5E1,6E0,3.8E1,1.3E1,2E0,1.3E1,4.4E1,1.6E1,7E0,1.9E1,4E0,1E0,5E0,5E0],"tree_param":{"num_deleted":"0","num_feature":"131","num_nodes":"47","size_leaf_vector":"1"}},{"base_weights":[3.1252475E-3,-2.1783939E-2,2.874499E-1,8.602845E-2,-8.290189E-2,4.4365326E-1,1.8122886E-1,-3.192646E-1,1.2986617E-1,7.0045285E-2,-9.365411E-2,5.5478524E-2,2.2160793E-2,2.939865E-2,9.844918E-2,-8.713818E-3,-3.3997722E-2,4.3289205E-1,6.204612E-2,-1.4726415E-1,3.6771215E-2,1.1520195E-2,2.6542982E-3,5.2377075E-2,9.747231E-3,2.5043303E-2,-2.465381E-3,-5.6704182E-2,-8.76711E-3,-1.1582787E-2,2.8244654E-2],"categories":[],"categories_nodes":[],"categories_segments":[],"categories_sizes":[],"default_left":[0,0,0,0,0,0,0,0,0,0,0,0,0,0,0,0,0,0,0,0,0,0,0,0,0,0,0,0,0,0,0],"id":32,"left_children":[1,3,5,7,9,11,13,15,17,-1,19,-1,-1,-1,21,-1,-1,23,25,27,29,-1,-1,-1,-1,-1,-1,-1,-1,-1,-1],"loss_changes":[1.6706011E0,1.437004E0,2.3484683E-1,1.4450644E0,1.2363706E0,4.9789667E-2,9.2399806E-2,8.838534E-3,1.4528292E0,0E0,9.7032595E-1,0E0,0E0,0E0,7.7838376E-3,0E0,0E0,3.452196E-1,9.8616207E-1,2.4018385E0,1.5697981E0,0E0,0E0,0E0,0E0,0E0,0E0,0E0,0E0,0E0,0E0],"parents":[2147483647,0,0,1,1,2,2,3,3,4,4,5,5,6,6,7,7,8,8,10,10,14,14,17,17,18,18,19,19,20,20],"right_children":[2,4,6,8,10,12,14,16,18,-1,20,-1,-1,-1,22,-1,-1,24,26,28,30,-1,-1,-1,-1,-1,-1,-1,-1,-1,-1],"split_conditions":[-2.085474E-1,-1.7439764E-2,2.5E1,2E-1,5.882353E-2,1.6666667E-1,5.7229006E-1,2.2E1,2.5E-1,7.0045285E-2,7.993189E-1,5.5478524E-2,2.2160793E-2,2.939865E-2,7.5E1,-8.713818E-3,-3.3997722E-2,6.5E1,-1.6448382E-2,9.7779006E-1,-8.477238E-1,1.1520195E-2,2.6542982E-3,5.2377075E-2,9.747231E-3,2.5043303E-2,-2.465381E-3,-5.6704182E-2,-8.76711E-3,-1.1582787E-2,2.8244654E-2],"split_indices":[95,16,2,0,0,0,67,2,0,0,3,0,0,0,2,0,0,2,80,82,71,0,0,0,0,0,0,0,0,0,0],"split_type":[0,0,0,0,0,0,0,0,0,0,0,0,0,0,0,0,0,0,0,0,0,0,0,0,0,0,0,0,0,0,0],"sum_hessian":[2.34E2,2.16E2,1.8E1,7.8E1,1.38E2,6E0,1.2E1,7E0,7.1E1,1E0,1.37E2,3E0,3E0,4E0,8E0,1E0,6E0,1.2E1,5.9E1,9.7E1,4E1,6E0,2E0,9E0,3E0,1.8E1,4.1E1,1.1E1,8.6E1,2.5E1,1.5E1],"tree_param":{"num_deleted":"0","num_feature":"131","num_nodes":"31","size_leaf_vector":"1"}},{"base_weights":[3.5975543E-3,-1.9993965E-2,2.5820607E-1,7.795703E-2,-7.5922474E-2,4.1037956E-1,1.6367605E-1,-2.9267722E-1,1.1805587E-1,6.6543005E-2,-8.619096E-2,5.640618E-2,2.3609428E-2,2.7046738E-2,9.3912795E-2,-8.2781315E-3,-3.1083647E-2,3.943817E-1,5.6217674E-2,6.217681E-2,-1.2660617E-1,1.0810089E-2,2.4773597E-3,1.6087389E-2,5.2021485E-2,2.267076E-2,-2.224724E-3,-2.628906E-2,1.3770592E-2,-2.2127924E-2,3.3500579E-3],"categories":[],"categories_nodes":[],"categories_segments":[],"categories_sizes":[],"default_left":[0,0,0,0,0,0,0,0,0,0,0,0,0,0,0,0,0,0,0,0,0,0,0,0,0,0,0,0,0,0,0],"id":33,"left_children":[1,3,5,7,9,11,13,15,17,-1,19,-1,-1,-1,21,-1,-1,23,25,27,29,-1,-1,-1,-1,-1,-1,-1,-1,-1,-1],"loss_changes":[1.416714E0,1.1892213E0,2.2052991E-1,1.2086507E0,1.1078886E0,5.4320097E-2,7.89012E-2,4.7609806E-3,1.208128E0,0E0,8.293669E-1,0E0,0E0,0E0,7.1314946E-3,0E0,0E0,2.982905E-1,8.0769235E-1,7.727632E-1,1.6444556E0,0E0,0E0,0E0,0E0,0E0,0E0,0E0,0E0,0E0,0E0],"parents":[2147483647,0,0,1,1,2,2,3,3,4,4,5,5,6,6,7,7,8,8,10,10,14,14,17,17,18,18,19,19,20,20],"right_children":[2,4,6,8,10,12,14,16,18,-1,20,-1,-1,-1,22,-1,-1,24,26,28,30,-1,-1,-1,-1,-1,-1,-1,-1,-1,-1],"split_conditions":[-3.4908774E-1,-1.7439764E-2,2.5E1,2E-1,5.882353E-2,-8.153427E-1,5.7229006E-1,2.2E1,2.5E-1,6.6543005E-2,5E-1,5.640618E-2,2.3609428E-2,2.7046738E-2,7.5E1,-8.2781315E-3,-3.1083647E-2,5.980176E-1,-1.6448382E-2,-6.081098E-1,7.993189E-1,1.0810089E-2,2.4773597E-3,1.6087389E-2,5.2021485E-2,2.267076E-2,-2.224724E-3,-2.628906E-2,1.3770592E-2,-2.2127924E-2,3.3500579E-3],"split_indices":[94,16,2,0,0,71,67,2,0,0,1,0,0,0,2,0,0,67,80,68,3,0,0,0,0,0,0,0,0,0,0],"split_type":[0,0,0,0,0,0,0,0,0,0,0,0,0,0,0,0,0,0,0,0,0,0,0,0,0,0,0,0,0,0,0],"sum_hessian":[2.34E2,2.15E2,1.9E1,7.8E1,1.37E2,6E0,1.3E1,7E0,7.1E1,1E0,1.36E2,2E0,4E0,4E0,9E0,1E0,6E0,1.2E1,5.9E1,2.9E1,1.07E2,7E0,2E0,5E0,7E0,1.8E1,4.1E1,5E0,2.4E1,6.7E1,4E1],"tree_param":{"num_deleted":"0","num_feature":"131","num_nodes":"31","size_leaf_vector":"1"}},{"base_weights":[4.109259E-3,2.6988266E-2,-2.4318947E-1,6.4775355E-2,-1.4616789E-1,-3.1210893E-1,2.5990725E-2,3.0391464E-1,3.9280646E-2,-5.480905E-2,-3.246695E-1,-1.0260099E-1,-3.9801246E-1,-3.6220312E-2,7.953819E-3,6.361206E-1,1.5276505E-1,-3.3378607E-1,5.083794E-2,-2.2954151E-2,-3.0199686E-2,-9.18242E-2,-4.179536E-1,-1.6291478E-1,1.2017727E-3,-4.5417946E-2,-1.861754E-2,-5.574453E-3,1.4140607E-4,7.109227E-2,1.6845608E-2,2.4882965E-2,8.242194E-3,-5.422139E-3,-3.901219E-2,1.0014786E-2,-6.0895304E-3,7.708507E-3,-1.2122768E-2,-2.81868E-3,-1.2485353E-2,-2.4553845E-2,-5.0677806E-2,-1.9592425E-2,-3.1943202E-3],"categories":[],"categories_nodes":[],"categories_segments":[],"categories_sizes":[],"default_left":[0,0,0,0,0,0,0,0,0,0,0,0,0,0,0,0,0,0,0,0,0,0,0,0,0,0,0,0,0,0,0,0,0,0,0,0,0,0,0,0,0,0,0,0,0],"id":34,"left_children":[1,3,5,7,9,11,13,15,17,19,21,23,25,27,-1,29,31,33,35,37,-1,39,41,43,-1,-1,-1,-1,-1,-1,-1,-1,-1,-1,-1,-1,-1,-1,-1,-1,-1,-1,-1,-1,-1],"loss_changes":[1.3361814E0,1.4227707E0,3.7914693E-1,1.07329E0,6.182055E-1,2.4712312E-1,1.9537115E-2,7.5644064E-1,7.154552E-1,2.0566973E-1,2.4399161E-1,4.3436393E-2,4.6323657E-2,2.2831713E-3,0E0,5.515194E-2,6.733829E-2,5.7594597E-2,8.766086E-1,2.55125E-1,0E0,6.99028E-3,1.3398528E-2,1.1034757E-2,0E0,0E0,0E0,0E0,0E0,0E0,0E0,0E0,0E0,0E0,0E0,0E0,0E0,0E0,0E0,0E0,0E0,0E0,0E0,0E0,0E0],"parents":[2147483647,0,0,1,1,2,2,3,3,4,4,5,5,6,6,7,7,8,8,9,9,10,10,11,11,12,12,13,13,15,15,16,16,17,17,18,18,19,19,21,21,22,22,23,23],"right_children":[2,4,6,8,10,12,14,16,18,20,22,24,26,28,-1,30,32,34,36,38,-1,40,42,44,-1,-1,-1,-1,-1,-1,-1,-1,-1,-1,-1,-1,-1,-1,-1,-1,-1,-1,-1,-1,-1],"split_conditions":[-2.1633692E-1,9.756351E-2,6E1,1.6666667E-1,5.5E1,8.9656967E-1,8E1,3E1,-3.8704666E-1,2.5E-1,9.090909E-2,6.252673E-1,3E1,7E1,7.953819E-3,6.20723E-1,5.7229006E-1,9.7779006E-1,6.5E1,3.5E1,-3.0199686E-2,6.5E1,1.1111111E-1,2.2E1,1.2017727E-3,-4.5417946E-2,-1.861754E-2,-5.574453E-3,1.4140607E-4,7.109227E-2,1.6845608E-2,2.4882965E-2,8.242194E-3,-5.422139E-3,-3.901219E-2,1.0014786E-2,-6.0895304E-3,7.708507E-3,-1.2122768E-2,-2.81868E-3,-1.2485353E-2,-2.4553845E-2,-5.0677806E-2,-1.9592425E-2,-3.1943202E-3],"split_indices":[112,64,2,0,2,82,2,2,38,0,0,3,2,2,0,67,67,82,2,2,0,2,0,2,0,0,0,0,0,0,0,0,0,0,0,0,0,0,0,0,0,0,0,0,0],"split_type":[0,0,0,0,0,0,0,0,0,0,0,0,0,0,0,0,0,0,0,0,0,0,0,0,0,0,0,0,0,0,0,0,0,0,0,0,0,0,0,0,0,0,0,0,0],"sum_hessian":[2.34E2,2.15E2,1.9E1,1.77E2,3.8E1,1.5E1,4E0,1.6E1,1.61E2,2.6E1,1.2E1,5E0,1E1,2E0,2E0,4E0,1.2E1,4E0,1.57E2,2.4E1,2E0,4E0,8E0,3E0,2E0,7E0,3E0,1E0,1E0,3E0,1E0,4E0,8E0,1E0,3E0,1.09E2,4.8E1,1.2E1,1.2E1,2E0,2E0,4E0,4E0,2E0,1E0],"tree_param":{"num_deleted":"0","num_feature":"131","num_nodes":"45","size_leaf_vector":"1"}},{"base_weights":[3.1548836E-3,2.4082907E-2,-2.230255E-1,5.8750287E-2,-1.3476008E-1,-2.862493E-1,2.3895789E-2,2.8064418E-1,3.5102468E-2,-5.0610136E-2,-2.991669E-1,-9.593842E-2,-3.6403257E-1,-3.4409285E-2,7.4235597E-3,5.900959E-1,1.4003628E-1,8.316478E-2,-5.4892406E-2,1.656458E-2,-1.4982468E-1,-8.570266E-2,-3.8451737E-1,-1.5232E-1,1.1216481E-3,-4.003548E-2,-1.3372183E-2,-5.2957297E-3,1.3433695E-4,6.576033E-2,1.6003324E-2,2.2892304E-2,7.509518E-3,2.6262099E-2,4.095457E-3,8.841422E-4,-5.981035E-2,6.793526E-3,-3.6646605E-3,-6.2259496E-3,-2.4245102E-2,-2.6307742E-3,-1.1653002E-2,-2.2589544E-2,-4.6623584E-2,-1.8286264E-2,-3.0346035E-3],"categories":[],"categories_nodes":[],"categories_segments":[],"categories_sizes":[],"default_left":[0,0,0,0,0,0,0,0,0,0,0,0,0,0,0,0,0,0,0,0,0,0,0,0,0,0,0,0,0,0,0,0,0,0,0,0,0,0,0,0,0,0,0,0,0,0,0],"id":35,"left_children":[1,3,5,7,9,11,13,15,17,19,21,23,25,27,-1,29,31,33,35,37,39,41,43,45,-1,-1,-1,-1,-1,-1,-1,-1,-1,-1,-1,-1,-1,-1,-1,-1,-1,-1,-1,-1,-1,-1,-1],"loss_changes":[1.1177455E0,1.197358E0,3.1906623E-1,9.2416936E-1,5.244172E-1,2.0192337E-1,1.7229727E-2,6.570581E-1,7.0527375E-1,1.8242893E-1,2.0389628E-1,3.795787E-2,3.8483143E-2,2.060563E-3,0E0,3.9923668E-2,5.785024E-2,7.9218215E-1,1.9786806E0,4.8959E-2,7.412438E-2,6.0893E-3,1.1340499E-2,9.352468E-3,0E0,0E0,0E0,0E0,0E0,0E0,0E0,0E0,0E0,0E0,0E0,0E0,0E0,0E0,0E0,0E0,0E0,0E0,0E0,0E0,0E0,0E0,0E0],"parents":[2147483647,0,0,1,1,2,2,3,3,4,4,5,5,6,6,7,7,8,8,9,9,10,10,11,11,12,12,13,13,15,15,16,16,17,17,18,18,19,19,20,20,21,21,22,22,23,23],"right_children":[2,4,6,8,10,12,14,16,18,20,22,24,26,28,-1,30,32,34,36,38,40,42,44,46,-1,-1,-1,-1,-1,-1,-1,-1,-1,-1,-1,-1,-1,-1,-1,-1,-1,-1,-1,-1,-1,-1,-1],"split_conditions":[-2.1633692E-1,9.756351E-2,6E1,1.6666667E-1,5.5E1,8.9656967E-1,8E1,3E1,3.397958E-1,1.1111111E-1,9.090909E-2,6.252673E-1,4E1,7E1,7.4235597E-3,6.20723E-1,5.7229006E-1,2.2E1,-3.2140163E-1,9.090909E-2,3.5E1,6.5E1,1.1111111E-1,2.2E1,1.1216481E-3,-4.003548E-2,-1.3372183E-2,-5.2957297E-3,1.3433695E-4,6.576033E-2,1.6003324E-2,2.2892304E-2,7.509518E-3,2.6262099E-2,4.095457E-3,8.841422E-4,-5.981035E-2,6.793526E-3,-3.6646605E-3,-6.2259496E-3,-2.4245102E-2,-2.6307742E-3,-1.1653002E-2,-2.2589544E-2,-4.6623584E-2,-1.8286264E-2,-3.0346035E-3],"split_indices":[112,64,2,0,2,82,2,2,28,0,0,3,2,2,0,67,67,2,88,0,2,2,0,2,0,0,0,0,0,0,0,0,0,0,0,0,0,0,0,0,0,0,0,0,0,0,0],"split_type":[0,0,0,0,0,0,0,0,0,0,0,0,0,0,0,0,0,0,0,0,0,0,0,0,0,0,0,0,0,0,0,0,0,0,0,0,0,0,0,0,0,0,0,0,0,0,0],"sum_hessian":[2.34E2,2.15E2,1.9E1,1.77E2,3.8E1,1.5E1,4E0,1.6E1,1.61E2,2.6E1,1.2E1,5E0,1E1,2E0,2E0,4E0,1.2E1,1.05E2,5.6E1,1.6E1,1E1,4E0,8E0,3E0,2E0,8E0,2E0,1E0,1E0,3E0,1E0,4E0,8E0,1.9E1,8.6E1,5.1E1,5E0,8E0,8E0,6E0,4E0,2E0,2E0,4E0,4E0,2E0,1E0],"tree_param":{"num_deleted":"0","num_feature":"131","num_nodes":"47","size_leaf_vector":"1"}},{"base_weights":[2.4198734E-3,2.1548491E-2,-2.042902E-1,7.205903E-2,-7.0568696E-2,-2.6222482E-1,2.1958638E-2,-3.3177906E-1,9.2617296E-2,3.8918473E-2,-1.8998505E-1,-8.971117E-2,-3.3248454E-1,-3.2688778E-2,6.92865E-3,-2.1605254E-3,-3.7987385E-2,1.8261722E-1,5.2376717E-2,1.6283016E-1,2.1121798E-2,-2.734334E-1,6.26688E-2,-1.4241824E-1,1.0468642E-3,-3.7940767E-2,-1.5551723E-2,-5.030942E-3,1.2762546E-4,-2.3343803E-3,2.902764E-2,-1.5546329E-2,8.179484E-3,3.56919E-3,2.3569172E-2,-4.5140195E-3,5.473316E-3,-3.317603E-2,-1.3526897E-2,8.172206E-3,1.3658404E-3,-1.7067183E-2,-2.882874E-3],"categories":[],"categories_nodes":[],"categories_segments":[],"categories_sizes":[],"default_left":[0,0,0,0,0,0,0,0,0,0,0,0,0,0,0,0,0,0,0,0,0,0,0,0,0,0,0,0,0,0,0,0,0,0,0,0,0,0,0,0,0,0,0],"id":36,"left_children":[1,3,5,7,9,11,13,15,17,19,21,23,25,27,-1,-1,-1,29,31,33,35,37,39,41,-1,-1,-1,-1,-1,-1,-1,-1,-1,-1,-1,-1,-1,-1,-1,-1,-1,-1,-1],"loss_changes":[9.3361056E-1,1.0101091E0,2.6791084E-1,1.1930381E0,1.0141349E0,1.641047E-1,1.519662E-2,9.621686E-2,4.7573602E-1,8.697459E-2,7.97227E-1,3.317203E-2,3.2337904E-2,1.8596647E-3,0E0,0E0,0E0,9.158933E-1,5.874567E-1,3.7905157E-2,8.4875435E-2,1.8076658E-1,8.221883E-3,7.916987E-3,0E0,0E0,0E0,0E0,0E0,0E0,0E0,0E0,0E0,0E0,0E0,0E0,0E0,0E0,0E0,0E0,0E0,0E0,0E0],"parents":[2147483647,0,0,1,1,2,2,3,3,4,4,5,5,6,6,7,7,8,8,9,9,10,10,11,11,12,12,13,13,17,17,18,18,19,19,20,20,21,21,22,22,23,23],"right_children":[2,4,6,8,10,12,14,16,18,20,22,24,26,28,-1,-1,-1,30,32,34,36,38,40,42,-1,-1,-1,-1,-1,-1,-1,-1,-1,-1,-1,-1,-1,-1,-1,-1,-1,-1,-1],"split_conditions":[-2.1633692E-1,6E1,6E1,-3.8704666E-1,9.078614E-1,8.9656967E-1,8E1,9.7779006E-1,2.6719213E-2,6.666667E-1,7.1E-1,6.252673E-1,3E1,7E1,6.92865E-3,-2.1605254E-3,-3.7987385E-2,2.2E1,6.252673E-1,8E1,8E-1,6E-1,8E1,2.2E1,1.0468642E-3,-3.7940767E-2,-1.5551723E-2,-5.030942E-3,1.2762546E-4,-2.3343803E-3,2.902764E-2,-1.5546329E-2,8.179484E-3,3.56919E-3,2.3569172E-2,-4.5140195E-3,5.473316E-3,-3.317603E-2,-1.3526897E-2,8.172206E-3,1.3658404E-3,-1.7067183E-2,-2.882874E-3],"split_indices":[112,2,2,38,75,82,2,82,101,1,0,3,2,2,0,0,0,2,3,2,1,0,2,2,0,0,0,0,0,0,0,0,0,0,0,0,0,0,0,0,0,0,0],"split_type":[0,0,0,0,0,0,0,0,0,0,0,0,0,0,0,0,0,0,0,0,0,0,0,0,0,0,0,0,0,0,0,0,0,0,0,0,0,0,0,0,0,0,0],"sum_hessian":[2.34E2,2.15E2,1.9E1,1.39E2,7.6E1,1.5E1,4E0,6E0,1.33E2,4E1,3.6E1,5E0,1E1,2E0,2E0,1E0,5E0,4E1,9.3E1,4E0,3.6E1,2.7E1,9E0,3E0,2E0,7E0,3E0,1E0,1E0,1.4E1,2.6E1,1.1E1,8.2E1,2E0,2E0,1.2E1,2.4E1,1.8E1,9E0,6E0,3E0,2E0,1E0],"tree_param":{"num_deleted":"0","num_feature":"131","num_nodes":"43","size_leaf_vector":"1"}},{"base_weights":[1.7512594E-3,1.0469943E-1,-3.180349E-2,-6.869597E-2,1.782706E-1,-6.091938E-2,1.4075556E-1,-1.4620174E-1,-1.77596E-2,2.1165574E-1,6.797877E-2,5.7150554E-2,-6.883998E-2,2.3241265E-1,8.710726E-2,-8.096428E-2,-2.0619696E-2,1.1718432E-2,-4.04894E-2,3.9668655E-1,1.7766364E-1,8.57677E-2,-5.4955245E-3,-9.943259E-2,8.324084E-2,2.8533617E-2,9.4924215E-3,1.304675E-1,1.6598523E-2,-2.1303177E-3,-9.055376E-3,2.3099424E-3,4.8223496E-4,-1.5882254E-3,-5.4974197E-3,4.6246625E-2,9.967375E-3,9.568146E-3,2.250826E-2,-3.9013864E-3,1.0396719E-2,-6.2933243E-3,-2.458326E-2,-1.4730731E-2,2.3654014E-2,1.3647704E-2,3.5186054E-3,7.3256493E-3,-3.204756E-3],"categories":[],"categories_nodes":[],"categories_segments":[],"categories_sizes":[],"default_left":[0,0,0,0,0,0,0,0,0,0,0,0,0,0,0,0,0,0,0,0,0,0,0,0,0,0,0,0,0,0,0,0,0,0,0,0,0,0,0,0,0,0,0,0,0,0,0,0,0],"id":37,"left_children":[1,3,5,7,9,11,13,15,17,19,21,-1,23,25,27,29,-1,31,33,35,37,39,-1,41,43,-1,-1,45,47,-1,-1,-1,-1,-1,-1,-1,-1,-1,-1,-1,-1,-1,-1,-1,-1,-1,-1,-1,-1],"loss_changes":[8.151138E-1,7.5214684E-1,9.0288436E-1,6.846504E-2,1.3657844E-1,8.0574715E-1,1.0760361E-1,1.0702953E-2,8.51483E-3,1.24500394E-1,2.876889E-2,0E0,7.1546423E-1,3.840202E-2,5.28654E-2,9.3151256E-4,0E0,3.5951205E-4,1.6218927E-3,3.2053888E-2,8.731401E-2,2.6765771E-2,0E0,6.63154E-1,9.537588E-1,0E0,0E0,1.4964938E-3,2.4397198E-2,0E0,0E0,0E0,0E0,0E0,0E0,0E0,0E0,0E0,0E0,0E0,0E0,0E0,0E0,0E0,0E0,0E0,0E0,0E0,0E0],"parents":[2147483647,0,0,1,1,2,2,3,3,4,4,5,5,6,6,7,7,8,8,9,9,10,10,12,12,13,13,14,14,15,15,17,17,18,18,19,19,20,20,21,21,23,23,24,24,27,27,28,28],"right_children":[2,4,6,8,10,12,14,16,18,20,22,-1,24,26,28,30,-1,32,34,36,38,40,-1,42,44,-1,-1,46,48,-1,-1,-1,-1,-1,-1,-1,-1,-1,-1,-1,-1,-1,-1,-1,-1,-1,-1,-1,-1],"split_conditions":[6.132924E-1,-3.303673E-1,7.1E-1,-1.9968717E-1,6.5E1,5.882353E-2,2.5E-1,3.3E-1,4E1,5.7229006E-1,2.3333333E0,5.7150554E-2,7.993189E-1,5.5E1,7.5E-1,6E1,-2.0619696E-2,1.5E1,7E1,4.5E1,6.252673E-1,6.7E-1,-5.4955245E-3,7E1,1.4285715E-1,2.8533617E-2,9.4924215E-3,8E1,4.5E1,-2.1303177E-3,-9.055376E-3,2.3099424E-3,4.8223496E-4,-1.5882254E-3,-5.4974197E-3,4.6246625E-2,9.967375E-3,9.568146E-3,2.250826E-2,-3.9013864E-3,1.0396719E-2,-6.2933243E-3,-2.458326E-2,-1.4730731E-2,2.3654014E-2,1.3647704E-2,3.5186054E-3,7.3256493E-3,-3.204756E-3],"split_indices":[67,24,0,40,2,0,1,0,2,67,0,0,3,2,0,2,0,2,2,2,3,1,0,2,0,0,0,2,2,0,0,0,0,0,0,0,0,0,0,0,0,0,0,0,0,0,0,0,0],"split_type":[0,0,0,0,0,0,0,0,0,0,0,0,0,0,0,0,0,0,0,0,0,0,0,0,0,0,0,0,0,0,0,0,0,0,0,0,0,0,0,0,0,0,0,0,0,0,0,0,0],"sum_hessian":[2.34E2,5.7E1,1.77E2,1.7E1,4E1,1.52E2,2.5E1,6E0,1.1E1,3E1,1E1,1E0,1.51E2,8E0,1.7E1,4E0,2E0,5E0,6E0,3E0,2.7E1,9E0,1E0,1.26E2,2.5E1,5E0,3E0,1E1,7E0,1E0,3E0,1E0,4E0,3E0,3E0,2E0,1E0,1.1E1,1.6E1,1E0,8E0,1.02E2,2.4E1,1E1,1.5E1,9E0,1E0,3E0,4E0],"tree_param":{"num_deleted":"0","num_feature":"131","num_nodes":"49","size_leaf_vector":"1"}},{"base_weights":[2.2046291E-3,-1.4925657E-2,1.8710148E-1,-3.819276E-2,1.1525836E-1,3.1535532E-2,1.09610185E-1,2.5408184E-2,-1.09396204E-1,1.6987507E-1,3.8393307E-2,1.7249036E-1,5.5511158E-2,-2.6735175E-1,6.1714448E-2,-1.5960455E-1,8.089165E-3,2.615583E-2,1.18448325E-1,5.5806942E-2,-1.026988E-2,1.8825503E-2,4.6833516E-3,6.549985E-2,1.3700485E-3,5.4293014E-2,-4.0267296E-2,1.752507E-2,5.81002E-4,-3.1001056E-2,-1.2031501E-2,3.0342048E-2,-1.1044783E-2,1.3567762E-2,1.004839E-3,6.81317E-3,-5.220747E-3,2.7437592E-3,1.0710367E-2],"categories":[],"categories_nodes":[],"categories_segments":[],"categories_sizes":[],"default_left":[0,0,0,0,0,0,0,0,0,0,0,0,0,0,0,0,0,0,0,0,0,0,0,0,0,0,0,0,0,0,0,0,0,0,0,0,0,0,0],"id":38,"left_children":[1,3,5,7,9,-1,11,13,15,17,19,21,23,25,27,29,31,-1,33,35,-1,-1,-1,37,-1,-1,-1,-1,-1,-1,-1,-1,-1,-1,-1,-1,-1,-1,-1],"loss_changes":[7.471165E-1,6.586671E-1,1.6420496E-1,8.36043E-1,1.3201582E-1,0E0,3.8049445E-2,1.0581434E0,5.14482E-1,5.8603227E-2,4.25852E-2,3.0689836E-3,2.8613247E-3,1.4247549E0,5.575335E-1,3.2317317E-1,9.7871965E-1,0E0,2.4783835E-2,2.2194505E-2,0E0,0E0,0E0,8.146083E-3,0E0,0E0,0E0,0E0,0E0,0E0,0E0,0E0,0E0,0E0,0E0,0E0,0E0,0E0,0E0],"parents":[2147483647,0,0,1,1,2,2,3,3,4,4,6,6,7,7,8,8,9,9,10,10,11,11,12,12,13,13,14,14,15,15,16,16,18,18,19,19,23,23],"right_children":[2,4,6,8,10,-1,12,14,16,18,20,22,24,26,28,30,32,-1,34,36,-1,-1,-1,38,-1,-1,-1,-1,-1,-1,-1,-1,-1,-1,-1,-1,-1,-1,-1],"split_conditions":[-3.4908774E-1,7.1E-1,2.5E1,1.8065535E-1,5.5E1,3.1535532E-2,6.08815E-1,-5.5476E-1,6E-1,2.5E-1,6.2933975E-1,7.5E1,7.5E1,5.882353E-2,3.5E1,-5.888024E-1,6.666667E-1,2.615583E-2,1.3333334E0,8.333333E-1,-1.026988E-2,1.8825503E-2,4.6833516E-3,6E1,1.3700485E-3,5.4293014E-2,-4.0267296E-2,1.752507E-2,5.81002E-4,-3.1001056E-2,-1.2031501E-2,3.0342048E-2,-1.1044783E-2,1.3567762E-2,1.004839E-3,6.81317E-3,-5.220747E-3,2.7437592E-3,1.0710367E-2],"split_indices":[94,0,2,72,2,0,67,35,0,1,3,2,2,0,2,51,0,0,0,1,0,0,0,2,0,0,0,0,0,0,0,0,0,0,0,0,0,0,0],"split_type":[0,0,0,0,0,0,0,0,0,0,0,0,0,0,0,0,0,0,0,0,0,0,0,0,0,0,0,0,0,0,0,0,0,0,0,0,0,0,0],"sum_hessian":[2.34E2,2.15E2,1.9E1,1.83E2,3.2E1,6E0,1.3E1,9.7E1,8.6E1,1.8E1,1.4E1,5E0,8E0,1E1,8.7E1,6E1,2.6E1,5E0,1.3E1,1.3E1,1E0,4E0,1E0,6E0,2E0,1E0,9E0,2.8E1,5.9E1,1.1E1,4.9E1,7E0,1.9E1,1.1E1,2E0,1.2E1,1E0,4E0,2E0],"tree_param":{"num_deleted":"0","num_feature":"131","num_nodes":"39","size_leaf_vector":"1"}},{"base_weights":[2.4536666E-3,-1.324576E-2,1.718848E-1,5.157838E-2,-1.8105358E-2,2.8832516E-1,1.0138713E-1,5.1708467E-2,-5.8230806E-2,3.7624203E-2,1.7791005E-2,1.6917534E-1,5.735431E-2,-2.8022856E-2,8.7872185E-2,-1.49023E-1,-1.652244E-2,2.095925E-2,7.2366395E-3,6.689781E-2,1.2786866E-3,3.336818E-2,3.3148897E-3,-2.5068788E-2,7.947477E-3,7.6909657E-3,-1.2204498E-2,3.921549E-3,9.996319E-3],"categories":[],"categories_nodes":[],"categories_segments":[],"categories_sizes":[],"default_left":[0,0,0,0,0,0,0,0,0,0,0,0,0,0,0,0,0,0,0,0,0,0,0,0,0,0,0,0,0],"id":39,"left_children":[1,3,5,-1,7,9,11,13,15,-1,-1,17,19,-1,21,23,25,-1,-1,27,-1,-1,-1,-1,-1,-1,-1,-1,-1],"loss_changes":[6.2737006E-1,5.646464E-1,1.3494301E-1,0E0,6.052929E-1,1.0142326E-3,3.208576E-2,9.7294635E-1,5.163286E-1,0E0,0E0,4.396245E-3,3.397882E-3,0E0,9.574475E-1,1.0188216E0,9.460097E-1,0E0,0E0,3.4025088E-3,0E0,0E0,0E0,0E0,0E0,0E0,0E0,0E0,0E0],"parents":[2147483647,0,0,1,1,2,2,4,4,5,5,6,6,7,7,8,8,11,11,12,12,14,14,15,15,16,16,19,19],"right_children":[2,4,6,-1,8,10,12,14,16,-1,-1,18,20,-1,22,24,26,-1,-1,28,-1,-1,-1,-1,-1,-1,-1,-1,-1],"split_conditions":[-3.4908774E-1,5.882353E-2,2.5E1,5.157838E-2,-1.7439764E-2,-8.153427E-1,5.7229006E-1,2E-1,2.2E1,3.7624203E-2,1.7791005E-2,6E1,7.5E1,-2.8022856E-2,2.5E-1,7.05965E-1,-3.6005187E-1,2.095925E-2,7.2366395E-3,6E1,1.2786866E-3,3.336818E-2,3.3148897E-3,-2.5068788E-2,7.947477E-3,7.6909657E-3,-1.2204498E-2,3.921549E-3,9.996319E-3],"split_indices":[94,0,2,0,16,71,67,0,2,0,0,2,2,0,0,3,94,0,0,2,0,0,0,0,0,0,0,0,0],"split_type":[0,0,0,0,0,0,0,0,0,0,0,0,0,0,0,0,0,0,0,0,0,0,0,0,0,0,0,0,0],"sum_hessian":[2.34E2,2.15E2,1.9E1,1E0,2.14E2,6E0,1.3E1,7.8E1,1.36E2,2E0,4E0,4E0,9E0,7E0,7.1E1,4.2E1,9.4E1,2E0,2E0,7E0,2E0,1.2E1,5.9E1,2.9E1,1.3E1,5E1,4.4E1,5E0,2E0],"tree_param":{"num_deleted":"0","num_feature":"131","num_nodes":"29","size_leaf_vector":"1"}},{"base_weights":[2.7930262E-3,1.8314634E-2,-1.6498E-1,7.621763E-2,-4.4775296E-2,-2.1729527E-1,3.54249E-2,-2.461883E-1,9.659729E-2,3.688384E-2,-1.3035996E-1,-6.265044E-2,-2.818929E-1,-3.8258315E-3,6.341028E-2,1.5289783E-3,-2.923163E-1,6.487864E-2,2.161976E-1,6.674503E-2,-4.249382E-4,-2.3050247E-1,-1.6991653E-2,-1.0880864E-1,1.9777298E-3,-3.228278E-2,-1.2954987E-2,1.0748148E-3,7.7381614E-3,-3.204046E-2,-7.593736E-3,1.3666989E-2,2.3993026E-4,3.591726E-3,3.3824418E-2,-6.17218E-3,1.3406453E-2,-2.729562E-2,6.448369E-3,-7.668577E-3,-3.4844346E-2,2.0289231E-2,-6.853585E-3,-1.3036462E-2,-2.207035E-3],"categories":[],"categories_nodes":[],"categories_segments":[],"categories_sizes":[],"default_left":[0,0,0,0,0,0,0,0,0,0,0,0,0,0,0,0,0,0,0,0,0,0,0,0,0,0,0,0,0,0,0,0,0,0,0,0,0,0,0,0,0,0,0,0,0],"id":40,"left_children":[1,3,5,7,9,11,13,15,17,19,21,23,25,-1,27,-1,29,31,33,35,37,39,41,43,-1,-1,-1,-1,-1,-1,-1,-1,-1,-1,-1,-1,-1,-1,-1,-1,-1,-1,-1,-1,-1],"loss_changes":[6.149867E-1,7.924813E-1,2.1738243E-1,7.662503E-1,7.316402E-1,1.4217424E-1,1.2736234E-2,8.889964E-2,3.9188445E-1,6.0188927E-2,5.7508576E-1,2.4980234E-2,2.677536E-2,0E0,2.1113325E-3,0E0,1.2135625E-2,3.8542253E-1,4.7190833E-1,2.677244E-1,4.5984197E-1,4.6309423E-1,2.9724893E-1,4.6017244E-3,0E0,0E0,0E0,0E0,0E0,0E0,0E0,0E0,0E0,0E0,0E0,0E0,0E0,0E0,0E0,0E0,0E0,0E0,0E0,0E0,0E0],"parents":[2147483647,0,0,1,1,2,2,3,3,4,4,5,5,6,6,7,7,8,8,9,9,10,10,11,11,12,12,14,14,16,16,17,17,18,18,19,19,20,20,21,21,22,22,23,23],"right_children":[2,4,6,8,10,12,14,16,18,20,22,24,26,-1,28,-1,30,32,34,36,38,40,42,44,-1,-1,-1,-1,-1,-1,-1,-1,-1,-1,-1,-1,-1,-1,-1,-1,-1,-1,-1,-1,-1],"split_conditions":[-2.1633692E-1,5E1,6E1,-3.8704666E-1,9.078614E-1,8.9656967E-1,7E1,9.7779006E-1,-6.318731E-1,-4.653507E-1,6E-1,6.252673E-1,3E1,-3.8258315E-3,8E1,1.5289783E-3,7.223646E-1,2.5E-1,2.2E1,-8.477238E-1,2E-1,1.1111111E-1,6.666667E-1,2.2E1,1.9777298E-3,-3.228278E-2,-1.2954987E-2,1.0748148E-3,7.7381614E-3,-3.204046E-2,-7.593736E-3,1.3666989E-2,2.3993026E-4,3.591726E-3,3.3824418E-2,-6.17218E-3,1.3406453E-2,-2.729562E-2,6.448369E-3,-7.668577E-3,-3.4844346E-2,2.0289231E-2,-6.853585E-3,-1.3036462E-2,-2.207035E-3],"split_indices":[112,2,2,38,75,82,2,82,74,4,0,3,2,0,2,0,67,0,2,71,0,0,0,2,0,0,0,0,0,0,0,0,0,0,0,0,0,0,0,0,0,0,0,0,0],"split_type":[0,0,0,0,0,0,0,0,0,0,0,0,0,0,0,0,0,0,0,0,0,0,0,0,0,0,0,0,0,0,0,0,0,0,0,0,0,0,0,0,0,0,0,0,0],"sum_hessian":[2.34E2,2.15E2,1.9E1,1.12E2,1.03E2,1.5E1,4E0,6E0,1.06E2,5.3E1,5E1,5E0,1E1,1E0,3E0,1E0,5E0,8.5E1,2.1E1,2.9E1,2.4E1,2.6E1,2.4E1,3E0,2E0,7E0,3E0,1E0,2E0,4E0,1E0,3.9E1,4.6E1,9E0,1.2E1,1E1,1.9E1,4E0,2E1,1.2E1,1.4E1,4E0,2E1,2E0,1E0],"tree_param":{"num_deleted":"0","num_feature":"131","num_nodes":"45","size_leaf_vector":"1"}},{"base_weights":[2.1605615E-3,1.6346702E-2,-1.5115778E-1,6.871282E-2,-4.070828E-2,-1.9922219E-1,3.2879878E-2,-2.27013E-1,8.741719E-2,3.2943327E-2,-1.17894135E-1,-5.859633E-2,-2.578161E-1,-3.6345364E-3,5.9272528E-2,1.4525413E-3,-2.696903E-1,1.7017487E-1,4.8212085E-2,6.0311634E-2,-1.2163734E-3,-1.7272653E-1,5.5671837E-2,-1.0173863E-1,1.8458844E-3,-2.8407915E-2,-9.308831E-3,1.0210753E-3,7.222287E-3,-2.9477218E-2,-7.2140484E-3,-1.8633207E-5,2.8943703E-2,-1.3520106E-2,8.238265E-3,-1.9013629E-3,1.52327195E-2,-2.5111971E-2,5.8342344E-3,-9.209816E-3,-2.716516E-2,1.0434227E-2,2.244695E-3,-1.21673625E-2,-2.0966828E-3],"categories":[],"categories_nodes":[],"categories_segments":[],"categories_sizes":[],"default_left":[0,0,0,0,0,0,0,0,0,0,0,0,0,0,0,0,0,0,0,0,0,0,0,0,0,0,0,0,0,0,0,0,0,0,0,0,0,0,0,0,0,0,0,0,0],"id":41,"left_children":[1,3,5,7,9,11,13,15,17,19,21,23,25,-1,27,-1,29,31,33,35,37,39,41,43,-1,-1,-1,-1,-1,-1,-1,-1,-1,-1,-1,-1,-1,-1,-1,-1,-1,-1,-1,-1,-1],"loss_changes":[5.13595E-1,6.481507E-1,1.8346363E-1,6.4488924E-1,5.9510946E-1,1.16729975E-1,1.128947E-2,7.607484E-2,3.3895952E-1,5.05576E-2,4.9498487E-1,2.1824E-2,2.114433E-2,0E0,1.8040175E-3,0E0,8.464485E-3,6.9085383E-1,4.7492066E-1,2.2187105E-1,3.8674894E-1,2.86052E-1,1.8679738E-2,3.8896352E-3,0E0,0E0,0E0,0E0,0E0,0E0,0E0,0E0,0E0,0E0,0E0,0E0,0E0,0E0,0E0,0E0,0E0,0E0,0E0,0E0,0E0],"parents":[2147483647,0,0,1,1,2,2,3,3,4,4,5,5,6,6,7,7,8,8,9,9,10,10,11,11,12,12,14,14,16,16,17,17,18,18,19,19,20,20,21,21,22,22,23,23],"right_children":[2,4,6,8,10,12,14,16,18,20,22,24,26,-1,28,-1,30,32,34,36,38,40,42,44,-1,-1,-1,-1,-1,-1,-1,-1,-1,-1,-1,-1,-1,-1,-1,-1,-1,-1,-1,-1,-1],"split_conditions":[-2.1633692E-1,5E1,6E1,-3.8704666E-1,9.078614E-1,8.9656967E-1,7E1,9.7779006E-1,2.6719213E-2,-4.653507E-1,7.1E-1,6.252673E-1,4E1,-3.6345364E-3,8E1,1.4525413E-3,7.223646E-1,2.2E1,6.252673E-1,-1.2809122E0,2E-1,7E1,2.5E-1,2.2E1,1.8458844E-3,-2.8407915E-2,-9.308831E-3,1.0210753E-3,7.222287E-3,-2.9477218E-2,-7.2140484E-3,-1.8633207E-5,2.8943703E-2,-1.3520106E-2,8.238265E-3,-1.9013629E-3,1.52327195E-2,-2.5111971E-2,5.8342344E-3,-9.209816E-3,-2.716516E-2,1.0434227E-2,2.244695E-3,-1.21673625E-2,-2.0966828E-3],"split_indices":[112,2,2,38,75,82,2,82,101,4,0,3,2,0,2,0,67,2,3,125,0,2,1,2,0,0,0,0,0,0,0,0,0,0,0,0,0,0,0,0,0,0,0,0,0],"split_type":[0,0,0,0,0,0,0,0,0,0,0,0,0,0,0,0,0,0,0,0,0,0,0,0,0,0,0,0,0,0,0,0,0,0,0,0,0,0,0,0,0,0,0,0,0],"sum_hessian":[2.34E2,2.15E2,1.9E1,1.12E2,1.03E2,1.5E1,4E0,6E0,1.06E2,5.3E1,5E1,5E0,1E1,1E0,3E0,1E0,5E0,3.3E1,7.3E1,2.9E1,2.4E1,3.8E1,1.2E1,3E0,2E0,8E0,2E0,1E0,2E0,4E0,1E0,1.4E1,1.9E1,1.1E1,6.2E1,1.6E1,1.3E1,4E0,2E1,2.2E1,1.6E1,4E0,8E0,2E0,1E0],"tree_param":{"num_deleted":"0","num_feature":"131","num_nodes":"45","size_leaf_vector":"1"}},{"base_weights":[1.5753014E-3,4.899211E-2,-2.6053262E-3,7.892218E-2,-2.9305836E-2,-5.4786656E-2,1.3569869E-1,-5.24269E-2,1.0699061E-1,-1.0238375E-1,-2.245613E-2,1.7849459E-1,5.76742E-2,6.542429E-2,-7.726464E-2,1.8488292E-1,5.4878037E-2,-1.1411667E-2,-1.5993118E-3,-1.3993168E-3,-4.3180627E-3,3.669132E-2,1.4750498E-2,6.9171907E-3,-5.7395697E-3,-1.0788855E-2,1.7371941E-2,-4.849993E-3,-1.9153407E-2,1.1443595E-2,2.6194442E-2,1.0862056E-2,2.3433606E-3],"categories":[],"categories_nodes":[],"categories_segments":[],"categories_sizes":[],"default_left":[0,0,0,0,0,0,0,0,0,0,0,0,0,0,0,0,0,0,0,0,0,0,0,0,0,0,0,0,0,0,0,0,0],"id":42,"left_children":[1,-1,3,5,7,9,11,13,15,17,19,21,23,25,27,29,31,-1,-1,-1,-1,-1,-1,-1,-1,-1,-1,-1,-1,-1,-1,-1,-1],"loss_changes":[4.810505E-1,0E0,5.1169014E-1,4.4774273E-1,5.6339264E-1,2.5399953E-2,1.2660962E-1,4.499829E-1,9.5392376E-2,5.2702203E-3,1.5004533E-3,9.769285E-2,2.5138807E-2,5.2550364E-1,4.0486342E-1,2.4311662E-2,2.6182987E-2,0E0,0E0,0E0,0E0,0E0,0E0,0E0,0E0,0E0,0E0,0E0,0E0,0E0,0E0,0E0,0E0],"parents":[2147483647,0,0,2,2,3,3,4,4,5,5,6,6,7,7,8,8,9,9,10,10,11,11,12,12,13,13,14,14,15,15,16,16],"right_children":[2,-1,4,6,8,10,12,14,16,18,20,22,24,26,28,30,32,-1,-1,-1,-1,-1,-1,-1,-1,-1,-1,-1,-1,-1,-1,-1,-1],"split_conditions":[5.882353E-2,4.899211E-2,6.132924E-1,